digraph Tree {
node [shape=box, fontname="helvetica"] ;
edge [fontname="helvetica"] ;
0 [label="H_degree <= 88.204\nsquared_error = 190357.973\nsamples = 642\nvalue = 1644.763"] ;
1 [label="H_degree <= 75.86\nsquared_error = 3737.663\nsamples = 157\nvalue = 1373.075"] ;
0 -> 1 [labeldistance=2.5, labelangle=45, headlabel="True"] ;
2 [label="H_degree <= 27.83\nsquared_error = 1577.291\nsamples = 137\nvalue = 1356.782"] ;
1 -> 2 ;
3 [label="H_degree <= 5.835\nsquared_error = 458.529\nsamples = 52\nvalue = 1401.752"] ;
2 -> 3 ;
4 [label="H_degree <= 0.449\nsquared_error = 763.376\nsamples = 10\nvalue = 1432.634"] ;
3 -> 4 ;
5 [label="squared_error = 0.0\nsamples = 1\nvalue = 1351.88"] ;
4 -> 5 ;
6 [label="H_degree <= 1.122\nsquared_error = 43.109\nsamples = 9\nvalue = 1441.607"] ;
4 -> 6 ;
7 [label="squared_error = 0.0\nsamples = 1\nvalue = 1452.58"] ;
6 -> 7 ;
8 [label="H_degree <= 1.571\nsquared_error = 31.564\nsamples = 8\nvalue = 1440.235"] ;
6 -> 8 ;
9 [label="squared_error = 0.0\nsamples = 1\nvalue = 1433.03"] ;
8 -> 9 ;
10 [label="squared_error = 27.598\nsamples = 7\nvalue = 1441.264"] ;
8 -> 10 ;
11 [label="H_degree <= 9.875\nsquared_error = 104.82\nsamples = 42\nvalue = 1394.4"] ;
3 -> 11 ;
12 [label="H_degree <= 8.978\nsquared_error = 367.948\nsamples = 5\nvalue = 1407.704"] ;
11 -> 12 ;
13 [label="H_degree <= 8.08\nsquared_error = 38.894\nsamples = 4\nvalue = 1398.528"] ;
12 -> 13 ;
14 [label="squared_error = 28.449\nsamples = 3\nvalue = 1400.947"] ;
13 -> 14 ;
15 [label="squared_error = -0.0\nsamples = 1\nvalue = 1391.27"] ;
13 -> 15 ;
16 [label="squared_error = 0.0\nsamples = 1\nvalue = 1444.41"] ;
12 -> 16 ;
17 [label="H_degree <= 26.259\nsquared_error = 42.11\nsamples = 37\nvalue = 1392.602"] ;
11 -> 17 ;
18 [label="H_degree <= 10.998\nsquared_error = 25.805\nsamples = 34\nvalue = 1391.816"] ;
17 -> 18 ;
19 [label="squared_error = 22.42\nsamples = 2\nvalue = 1396.545"] ;
18 -> 19 ;
20 [label="squared_error = 24.531\nsamples = 32\nvalue = 1391.52"] ;
18 -> 20 ;
21 [label="H_degree <= 27.157\nsquared_error = 140.549\nsamples = 3\nvalue = 1401.51"] ;
17 -> 21 ;
22 [label="squared_error = 48.094\nsamples = 2\nvalue = 1408.875"] ;
21 -> 22 ;
23 [label="squared_error = 0.0\nsamples = 1\nvalue = 1386.78"] ;
21 -> 23 ;
24 [label="H_degree <= 44.439\nsquared_error = 267.659\nsamples = 85\nvalue = 1329.271"] ;
2 -> 24 ;
25 [label="H_degree <= 28.504\nsquared_error = 24.909\nsamples = 29\nvalue = 1343.62"] ;
24 -> 25 ;
26 [label="squared_error = 0.0\nsamples = 1\nvalue = 1351.77"] ;
25 -> 26 ;
27 [label="H_degree <= 43.317\nsquared_error = 23.342\nsamples = 28\nvalue = 1343.329"] ;
25 -> 27 ;
28 [label="H_degree <= 42.868\nsquared_error = 22.918\nsamples = 26\nvalue = 1342.931"] ;
27 -> 28 ;
29 [label="squared_error = 21.131\nsamples = 25\nvalue = 1343.254"] ;
28 -> 29 ;
30 [label="squared_error = -0.0\nsamples = 1\nvalue = 1334.87"] ;
28 -> 30 ;
31 [label="H_degree <= 43.766\nsquared_error = 0.007\nsamples = 2\nvalue = 1348.505"] ;
27 -> 31 ;
32 [label="squared_error = 0.0\nsamples = 1\nvalue = 1348.42"] ;
31 -> 32 ;
33 [label="squared_error = -0.0\nsamples = 1\nvalue = 1348.59"] ;
31 -> 33 ;
34 [label="H_degree <= 66.209\nsquared_error = 231.522\nsamples = 56\nvalue = 1321.84"] ;
24 -> 34 ;
35 [label="H_degree <= 65.536\nsquared_error = 37.457\nsamples = 38\nvalue = 1312.214"] ;
34 -> 35 ;
36 [label="H_degree <= 56.783\nsquared_error = 34.253\nsamples = 37\nvalue = 1311.881"] ;
35 -> 36 ;
37 [label="squared_error = 37.568\nsamples = 24\nvalue = 1312.803"] ;
36 -> 37 ;
38 [label="squared_error = 23.665\nsamples = 13\nvalue = 1310.179"] ;
36 -> 38 ;
39 [label="squared_error = -0.0\nsamples = 1\nvalue = 1324.54"] ;
35 -> 39 ;
40 [label="H_degree <= 67.107\nsquared_error = 32.672\nsamples = 18\nvalue = 1342.161"] ;
34 -> 40 ;
41 [label="H_degree <= 66.658\nsquared_error = 7.673\nsamples = 2\nvalue = 1348.82"] ;
40 -> 41 ;
42 [label="squared_error = 0.0\nsamples = 1\nvalue = 1346.05"] ;
41 -> 42 ;
43 [label="squared_error = 0.0\nsamples = 1\nvalue = 1351.59"] ;
41 -> 43 ;
44 [label="H_degree <= 67.556\nsquared_error = 29.561\nsamples = 16\nvalue = 1341.329"] ;
40 -> 44 ;
45 [label="squared_error = 0.0\nsamples = 1\nvalue = 1336.83"] ;
44 -> 45 ;
46 [label="squared_error = 30.093\nsamples = 15\nvalue = 1341.629"] ;
44 -> 46 ;
47 [label="H_degree <= 86.409\nsquared_error = 4261.625\nsamples = 20\nvalue = 1484.682"] ;
1 -> 47 ;
48 [label="H_degree <= 78.105\nsquared_error = 4137.099\nsamples = 17\nvalue = 1473.239"] ;
47 -> 48 ;
49 [label="H_degree <= 76.534\nsquared_error = 20.705\nsamples = 3\nvalue = 1434.257"] ;
48 -> 49 ;
50 [label="squared_error = 0.0\nsamples = 1\nvalue = 1439.93"] ;
49 -> 50 ;
51 [label="H_degree <= 77.207\nsquared_error = 6.917\nsamples = 2\nvalue = 1431.42"] ;
49 -> 51 ;
52 [label="squared_error = 0.0\nsamples = 1\nvalue = 1428.79"] ;
51 -> 52 ;
53 [label="squared_error = -0.0\nsamples = 1\nvalue = 1434.05"] ;
51 -> 53 ;
54 [label="H_degree <= 78.778\nsquared_error = 4623.763\nsamples = 14\nvalue = 1481.593"] ;
48 -> 54 ;
55 [label="squared_error = 0.0\nsamples = 1\nvalue = 1716.34"] ;
54 -> 55 ;
56 [label="H_degree <= 81.696\nsquared_error = 414.425\nsamples = 13\nvalue = 1463.535"] ;
54 -> 56 ;
57 [label="H_degree <= 79.227\nsquared_error = 15.397\nsamples = 5\nvalue = 1438.498"] ;
56 -> 57 ;
58 [label="squared_error = 0.0\nsamples = 1\nvalue = 1444.54"] ;
57 -> 58 ;
59 [label="squared_error = 7.838\nsamples = 4\nvalue = 1436.988"] ;
57 -> 59 ;
60 [label="H_degree <= 82.818\nsquared_error = 27.152\nsamples = 8\nvalue = 1479.184"] ;
56 -> 60 ;
61 [label="squared_error = 0.0\nsamples = 1\nvalue = 1474.41"] ;
60 -> 61 ;
62 [label="squared_error = 27.31\nsamples = 7\nvalue = 1479.866"] ;
60 -> 62 ;
63 [label="H_degree <= 87.307\nsquared_error = 20.487\nsamples = 3\nvalue = 1549.527"] ;
47 -> 63 ;
64 [label="squared_error = 0.0\nsamples = 1\nvalue = 1555.61"] ;
63 -> 64 ;
65 [label="H_degree <= 87.756\nsquared_error = 2.976\nsamples = 2\nvalue = 1546.485"] ;
63 -> 65 ;
66 [label="squared_error = 0.0\nsamples = 1\nvalue = 1544.76"] ;
65 -> 66 ;
67 [label="squared_error = -0.0\nsamples = 1\nvalue = 1548.21"] ;
65 -> 67 ;
68 [label="H_degree <= 144.763\nsquared_error = 219139.588\nsamples = 485\nvalue = 1732.712"] ;
0 -> 68 [labeldistance=2.5, labelangle=-45, headlabel="False"] ;
69 [label="H_degree <= 100.324\nsquared_error = 44476.679\nsamples = 106\nvalue = 2184.986"] ;
68 -> 69 ;
70 [label="H_degree <= 97.631\nsquared_error = 13387.68\nsamples = 23\nvalue = 1802.741"] ;
69 -> 70 ;
71 [label="H_degree <= 93.815\nsquared_error = 5425.325\nsamples = 17\nvalue = 1745.236"] ;
70 -> 71 ;
72 [label="H_degree <= 89.102\nsquared_error = 2068.811\nsamples = 9\nvalue = 1683.474"] ;
71 -> 72 ;
73 [label="squared_error = 0.0\nsamples = 1\nvalue = 1560.88"] ;
72 -> 73 ;
74 [label="H_degree <= 90.0\nsquared_error = 213.904\nsamples = 8\nvalue = 1698.799"] ;
72 -> 74 ;
75 [label="squared_error = 0.0\nsamples = 1\nvalue = 1661.02"] ;
74 -> 75 ;
76 [label="squared_error = 11.443\nsamples = 7\nvalue = 1704.196"] ;
74 -> 76 ;
77 [label="H_degree <= 94.938\nsquared_error = 82.423\nsamples = 8\nvalue = 1814.718"] ;
71 -> 77 ;
78 [label="H_degree <= 94.489\nsquared_error = 124.211\nsamples = 2\nvalue = 1819.585"] ;
77 -> 78 ;
79 [label="squared_error = 0.0\nsamples = 1\nvalue = 1808.44"] ;
78 -> 79 ;
80 [label="squared_error = 0.0\nsamples = 1\nvalue = 1830.73"] ;
78 -> 80 ;
81 [label="H_degree <= 96.284\nsquared_error = 57.964\nsamples = 6\nvalue = 1813.095"] ;
77 -> 81 ;
82 [label="squared_error = 12.933\nsamples = 3\nvalue = 1809.497"] ;
81 -> 82 ;
83 [label="squared_error = 77.098\nsamples = 3\nvalue = 1816.693"] ;
81 -> 83 ;
84 [label="H_degree <= 98.978\nsquared_error = 31.908\nsamples = 6\nvalue = 1965.672"] ;
70 -> 84 ;
85 [label="H_degree <= 98.529\nsquared_error = 28.333\nsamples = 3\nvalue = 1962.983"] ;
84 -> 85 ;
86 [label="H_degree <= 98.08\nsquared_error = 8.294\nsamples = 2\nvalue = 1966.36"] ;
85 -> 86 ;
87 [label="squared_error = 0.0\nsamples = 1\nvalue = 1963.48"] ;
86 -> 87 ;
88 [label="squared_error = -0.0\nsamples = 1\nvalue = 1969.24"] ;
86 -> 88 ;
89 [label="squared_error = -0.0\nsamples = 1\nvalue = 1956.23"] ;
85 -> 89 ;
90 [label="H_degree <= 99.875\nsquared_error = 21.029\nsamples = 3\nvalue = 1968.36"] ;
84 -> 90 ;
91 [label="H_degree <= 99.426\nsquared_error = 15.88\nsamples = 2\nvalue = 1970.645"] ;
90 -> 91 ;
92 [label="squared_error = 0.0\nsamples = 1\nvalue = 1966.66"] ;
91 -> 92 ;
93 [label="squared_error = 0.0\nsamples = 1\nvalue = 1974.63"] ;
91 -> 93 ;
94 [label="squared_error = 0.0\nsamples = 1\nvalue = 1963.79"] ;
90 -> 94 ;
95 [label="H_degree <= 144.09\nsquared_error = 1383.202\nsamples = 83\nvalue = 2290.91"] ;
69 -> 95 ;
96 [label="H_degree <= 100.773\nsquared_error = 120.929\nsamples = 82\nvalue = 2294.835"] ;
95 -> 96 ;
97 [label="squared_error = 0.0\nsamples = 1\nvalue = 2226.03"] ;
96 -> 97 ;
98 [label="H_degree <= 108.853\nsquared_error = 63.254\nsamples = 81\nvalue = 2295.685"] ;
96 -> 98 ;
99 [label="H_degree <= 108.404\nsquared_error = 59.608\nsamples = 15\nvalue = 2290.437"] ;
98 -> 99 ;
100 [label="squared_error = 53.925\nsamples = 14\nvalue = 2291.251"] ;
99 -> 100 ;
101 [label="squared_error = 0.0\nsamples = 1\nvalue = 2279.04"] ;
99 -> 101 ;
102 [label="H_degree <= 130.399\nsquared_error = 56.402\nsamples = 66\nvalue = 2296.877"] ;
98 -> 102 ;
103 [label="squared_error = 46.826\nsamples = 39\nvalue = 2297.846"] ;
102 -> 103 ;
104 [label="squared_error = 66.92\nsamples = 27\nvalue = 2295.478"] ;
102 -> 104 ;
105 [label="squared_error = 0.0\nsamples = 1\nvalue = 1969.0"] ;
95 -> 105 ;
106 [label="H_degree <= 231.397\nsquared_error = 194779.432\nsamples = 379\nvalue = 1606.218"] ;
68 -> 106 ;
107 [label="H_degree <= 160.025\nsquared_error = 44361.76\nsamples = 157\nvalue = 1351.698"] ;
106 -> 107 ;
108 [label="H_degree <= 159.352\nsquared_error = 64932.533\nsamples = 29\nvalue = 1631.746"] ;
107 -> 108 ;
109 [label="H_degree <= 150.374\nsquared_error = 23912.78\nsamples = 28\nvalue = 1593.088"] ;
108 -> 109 ;
110 [label="H_degree <= 147.456\nsquared_error = 3458.538\nsamples = 11\nvalue = 1767.373"] ;
109 -> 110 ;
111 [label="squared_error = 44.554\nsamples = 6\nvalue = 1820.773"] ;
110 -> 111 ;
112 [label="squared_error = 27.029\nsamples = 5\nvalue = 1703.292"] ;
110 -> 112 ;
113 [label="H_degree <= 155.985\nsquared_error = 4775.809\nsamples = 17\nvalue = 1480.316"] ;
109 -> 113 ;
114 [label="squared_error = 1427.184\nsamples = 10\nvalue = 1531.803"] ;
113 -> 114 ;
115 [label="squared_error = 362.478\nsamples = 7\nvalue = 1406.763"] ;
113 -> 115 ;
116 [label="squared_error = 0.0\nsamples = 1\nvalue = 2714.17"] ;
108 -> 116 ;
117 [label="H_degree <= 195.935\nsquared_error = 17906.889\nsamples = 128\nvalue = 1288.25"] ;
107 -> 117 ;
118 [label="H_degree <= 167.88\nsquared_error = 8362.389\nsamples = 68\nvalue = 1187.826"] ;
117 -> 118 ;
119 [label="H_degree <= 163.167\nsquared_error = 1853.933\nsamples = 15\nvalue = 1355.202"] ;
118 -> 119 ;
120 [label="squared_error = 309.453\nsamples = 7\nvalue = 1399.106"] ;
119 -> 120 ;
121 [label="squared_error = 42.99\nsamples = 8\nvalue = 1316.786"] ;
119 -> 121 ;
122 [label="H_degree <= 174.389\nsquared_error = 31.759\nsamples = 53\nvalue = 1140.456"] ;
118 -> 122 ;
123 [label="squared_error = 19.27\nsamples = 11\nvalue = 1145.747"] ;
122 -> 123 ;
124 [label="squared_error = 25.776\nsamples = 42\nvalue = 1139.07"] ;
122 -> 124 ;
125 [label="H_degree <= 210.748\nsquared_error = 4340.987\nsamples = 60\nvalue = 1402.063"] ;
117 -> 125 ;
126 [label="H_degree <= 202.219\nsquared_error = 233.901\nsamples = 26\nvalue = 1330.304"] ;
125 -> 126 ;
127 [label="squared_error = 60.985\nsamples = 10\nvalue = 1312.858"] ;
126 -> 127 ;
128 [label="squared_error = 32.847\nsamples = 16\nvalue = 1341.208"] ;
126 -> 128 ;
129 [label="H_degree <= 219.052\nsquared_error = 532.789\nsamples = 34\nvalue = 1456.937"] ;
125 -> 129 ;
130 [label="squared_error = 64.911\nsamples = 14\nvalue = 1437.326"] ;
129 -> 130 ;
131 [label="squared_error = 402.611\nsamples = 20\nvalue = 1470.666"] ;
129 -> 131 ;
132 [label="H_degree <= 288.853\nsquared_error = 222943.219\nsamples = 222\nvalue = 1786.217"] ;
106 -> 132 ;
133 [label="H_degree <= 284.813\nsquared_error = 20668.836\nsamples = 92\nvalue = 2267.426"] ;
132 -> 133 ;
134 [label="H_degree <= 272.693\nsquared_error = 13958.58\nsamples = 85\nvalue = 2292.571"] ;
133 -> 134 ;
135 [label="H_degree <= 231.845\nsquared_error = 3672.353\nsamples = 64\nvalue = 2271.278"] ;
134 -> 135 ;
136 [label="squared_error = 0.0\nsamples = 1\nvalue = 1998.36"] ;
135 -> 136 ;
137 [label="squared_error = 2529.587\nsamples = 63\nvalue = 2275.61"] ;
135 -> 137 ;
138 [label="H_degree <= 273.591\nsquared_error = 39714.379\nsamples = 21\nvalue = 2357.463"] ;
134 -> 138 ;
139 [label="squared_error = 75980.166\nsamples = 2\nvalue = 2912.495"] ;
138 -> 139 ;
140 [label="squared_error = 56.073\nsamples = 19\nvalue = 2299.038"] ;
138 -> 140 ;
141 [label="H_degree <= 288.18\nsquared_error = 1247.337\nsamples = 7\nvalue = 1962.097"] ;
133 -> 141 ;
142 [label="H_degree <= 285.262\nsquared_error = 21.889\nsamples = 6\nvalue = 1976.407"] ;
141 -> 142 ;
143 [label="squared_error = 0.0\nsamples = 1\nvalue = 1983.53"] ;
142 -> 143 ;
144 [label="squared_error = 14.089\nsamples = 5\nvalue = 1974.982"] ;
142 -> 144 ;
145 [label="squared_error = 0.0\nsamples = 1\nvalue = 1876.24"] ;
141 -> 145 ;
146 [label="H_degree <= 341.372\nsquared_error = 86243.16\nsamples = 130\nvalue = 1445.668"] ;
132 -> 146 ;
147 [label="H_degree <= 296.933\nsquared_error = 30885.726\nsamples = 96\nvalue = 1594.982"] ;
146 -> 147 ;
148 [label="H_degree <= 293.566\nsquared_error = 3277.332\nsamples = 15\nvalue = 1772.859"] ;
147 -> 148 ;
149 [label="squared_error = 28.422\nsamples = 9\nvalue = 1819.382"] ;
148 -> 149 ;
150 [label="squared_error = 34.276\nsamples = 6\nvalue = 1703.075"] ;
148 -> 150 ;
151 [label="H_degree <= 340.025\nsquared_error = 29054.007\nsamples = 81\nvalue = 1562.042"] ;
147 -> 151 ;
152 [label="squared_error = 23800.351\nsamples = 79\nvalue = 1553.611"] ;
151 -> 152 ;
153 [label="squared_error = 122878.292\nsamples = 2\nvalue = 1895.04"] ;
151 -> 153 ;
154 [label="H_degree <= 342.045\nsquared_error = 1858.187\nsamples = 34\nvalue = 1024.077"] ;
146 -> 154 ;
155 [label="squared_error = 0.0\nsamples = 1\nvalue = 1268.51"] ;
154 -> 155 ;
156 [label="H_degree <= 347.207\nsquared_error = 49.107\nsamples = 33\nvalue = 1016.67"] ;
154 -> 156 ;
157 [label="squared_error = 116.542\nsamples = 8\nvalue = 1020.865"] ;
156 -> 157 ;
158 [label="squared_error = 20.095\nsamples = 25\nvalue = 1015.328"] ;
156 -> 158 ;
}