digraph Tree {
node [shape=box, fontname="helvetica"] ;
edge [fontname="helvetica"] ;
0 [label="H_degree <= 24.239\nsquared_error = 51241.206\nsamples = 268\nvalue = 1870.086"] ;
1 [label="H_degree <= 13.97\nsquared_error = 3948.845\nsamples = 78\nvalue = 2164.961"] ;
0 -> 1 [labeldistance=2.5, labelangle=45, headlabel="True"] ;
2 [label="H_degree <= 3.701\nsquared_error = 90.208\nsamples = 47\nvalue = 2129.906"] ;
1 -> 2 ;
3 [label="H_degree <= 0.358\nsquared_error = 97.385\nsamples = 10\nvalue = 2116.469"] ;
2 -> 3 ;
4 [label="squared_error = 0.0\nsamples = 1\nvalue = 2090.18"] ;
3 -> 4 ;
5 [label="H_degree <= 2.269\nsquared_error = 22.883\nsamples = 9\nvalue = 2119.39"] ;
3 -> 5 ;
6 [label="H_degree <= 0.597\nsquared_error = 18.009\nsamples = 6\nvalue = 2117.078"] ;
5 -> 6 ;
7 [label="squared_error = 0.0\nsamples = 1\nvalue = 2123.46"] ;
6 -> 7 ;
8 [label="H_degree <= 1.91\nsquared_error = 11.837\nsamples = 5\nvalue = 2115.802"] ;
6 -> 8 ;
9 [label="squared_error = 10.288\nsamples = 4\nvalue = 2114.852"] ;
8 -> 9 ;
10 [label="squared_error = -0.0\nsamples = 1\nvalue = 2119.6"] ;
8 -> 10 ;
11 [label="H_degree <= 3.224\nsquared_error = 0.569\nsamples = 3\nvalue = 2124.013"] ;
5 -> 11 ;
12 [label="H_degree <= 2.627\nsquared_error = 0.281\nsamples = 2\nvalue = 2124.45"] ;
11 -> 12 ;
13 [label="squared_error = 0.0\nsamples = 1\nvalue = 2123.92"] ;
12 -> 13 ;
14 [label="squared_error = 0.0\nsamples = 1\nvalue = 2124.98"] ;
12 -> 14 ;
15 [label="squared_error = 0.0\nsamples = 1\nvalue = 2123.14"] ;
11 -> 15 ;
16 [label="H_degree <= 13.731\nsquared_error = 26.281\nsamples = 37\nvalue = 2133.538"] ;
2 -> 16 ;
17 [label="H_degree <= 13.373\nsquared_error = 8.949\nsamples = 36\nvalue = 2132.839"] ;
16 -> 17 ;
18 [label="H_degree <= 13.015\nsquared_error = 8.316\nsamples = 35\nvalue = 2132.682"] ;
17 -> 18 ;
19 [label="H_degree <= 9.194\nsquared_error = 7.559\nsamples = 34\nvalue = 2132.851"] ;
18 -> 19 ;
20 [label="squared_error = 6.482\nsamples = 18\nvalue = 2133.593"] ;
19 -> 20 ;
21 [label="squared_error = 7.455\nsamples = 16\nvalue = 2132.017"] ;
19 -> 21 ;
22 [label="squared_error = 0.0\nsamples = 1\nvalue = 2126.93"] ;
18 -> 22 ;
23 [label="squared_error = 0.0\nsamples = 1\nvalue = 2138.34"] ;
17 -> 23 ;
24 [label="squared_error = -0.0\nsamples = 1\nvalue = 2158.69"] ;
16 -> 24 ;
25 [label="H_degree <= 19.94\nsquared_error = 5111.343\nsamples = 31\nvalue = 2218.108"] ;
1 -> 25 ;
26 [label="H_degree <= 14.209\nsquared_error = 83.252\nsamples = 18\nvalue = 2277.728"] ;
25 -> 26 ;
27 [label="squared_error = 0.0\nsamples = 1\nvalue = 2243.85"] ;
26 -> 27 ;
28 [label="H_degree <= 17.791\nsquared_error = 16.666\nsamples = 17\nvalue = 2279.721"] ;
26 -> 28 ;
29 [label="H_degree <= 16.358\nsquared_error = 13.624\nsamples = 9\nvalue = 2280.84"] ;
28 -> 29 ;
30 [label="H_degree <= 14.448\nsquared_error = 7.083\nsamples = 6\nvalue = 2278.747"] ;
29 -> 30 ;
31 [label="squared_error = 0.0\nsamples = 1\nvalue = 2282.35"] ;
30 -> 31 ;
32 [label="squared_error = 5.384\nsamples = 5\nvalue = 2278.026"] ;
30 -> 32 ;
33 [label="H_degree <= 17.313\nsquared_error = 0.413\nsamples = 3\nvalue = 2285.027"] ;
29 -> 33 ;
34 [label="squared_error = 0.0\nsamples = 1\nvalue = 2285.88"] ;
33 -> 34 ;
35 [label="squared_error = 0.073\nsamples = 2\nvalue = 2284.6"] ;
33 -> 35 ;
36 [label="H_degree <= 18.627\nsquared_error = 17.093\nsamples = 8\nvalue = 2278.461"] ;
28 -> 36 ;
37 [label="H_degree <= 18.269\nsquared_error = 4.042\nsamples = 3\nvalue = 2275.417"] ;
36 -> 37 ;
38 [label="squared_error = 0.112\nsamples = 2\nvalue = 2276.825"] ;
37 -> 38 ;
39 [label="squared_error = -0.0\nsamples = 1\nvalue = 2272.6"] ;
37 -> 39 ;
40 [label="H_degree <= 19.224\nsquared_error = 16.025\nsamples = 5\nvalue = 2280.288"] ;
36 -> 40 ;
41 [label="squared_error = 12.709\nsamples = 2\nvalue = 2284.185"] ;
40 -> 41 ;
42 [label="squared_error = 1.362\nsamples = 3\nvalue = 2277.69"] ;
40 -> 42 ;
43 [label="H_degree <= 20.299\nsquared_error = 337.121\nsamples = 13\nvalue = 2135.558"] ;
25 -> 43 ;
44 [label="squared_error = 0.0\nsamples = 1\nvalue = 2192.01"] ;
43 -> 44 ;
45 [label="H_degree <= 24.0\nsquared_error = 77.511\nsamples = 12\nvalue = 2130.853"] ;
43 -> 45 ;
46 [label="H_degree <= 21.97\nsquared_error = 20.053\nsamples = 11\nvalue = 2133.172"] ;
45 -> 46 ;
47 [label="H_degree <= 21.134\nsquared_error = 4.668\nsamples = 5\nvalue = 2137.01"] ;
46 -> 47 ;
48 [label="squared_error = 2.496\nsamples = 3\nvalue = 2138.46"] ;
47 -> 48 ;
49 [label="squared_error = 0.042\nsamples = 2\nvalue = 2134.835"] ;
47 -> 49 ;
50 [label="H_degree <= 22.687\nsquared_error = 10.367\nsamples = 6\nvalue = 2129.973"] ;
46 -> 50 ;
51 [label="squared_error = 3.294\nsamples = 2\nvalue = 2126.145"] ;
50 -> 51 ;
52 [label="squared_error = 2.911\nsamples = 4\nvalue = 2131.888"] ;
50 -> 52 ;
53 [label="squared_error = 0.0\nsamples = 1\nvalue = 2105.35"] ;
45 -> 53 ;
54 [label="H_degree <= 74.985\nsquared_error = 20306.281\nsamples = 190\nvalue = 1749.032"] ;
0 -> 54 [labeldistance=2.5, labelangle=-45, headlabel="False"] ;
55 [label="H_degree <= 44.299\nsquared_error = 11096.908\nsamples = 173\nvalue = 1721.163"] ;
54 -> 55 ;
56 [label="H_degree <= 30.806\nsquared_error = 1937.64\nsamples = 68\nvalue = 1819.666"] ;
55 -> 56 ;
57 [label="H_degree <= 28.299\nsquared_error = 4045.212\nsamples = 24\nvalue = 1789.591"] ;
56 -> 57 ;
58 [label="H_degree <= 24.478\nsquared_error = 462.252\nsamples = 14\nvalue = 1840.211"] ;
57 -> 58 ;
59 [label="squared_error = 0.0\nsamples = 1\nvalue = 1916.92"] ;
58 -> 59 ;
60 [label="H_degree <= 28.06\nsquared_error = 10.361\nsamples = 13\nvalue = 1834.311"] ;
58 -> 60 ;
61 [label="squared_error = 5.079\nsamples = 12\nvalue = 1834.998"] ;
60 -> 61 ;
62 [label="squared_error = -0.0\nsamples = 1\nvalue = 1826.06"] ;
60 -> 62 ;
63 [label="H_degree <= 30.448\nsquared_error = 451.542\nsamples = 10\nvalue = 1718.722"] ;
57 -> 63 ;
64 [label="H_degree <= 28.537\nsquared_error = 164.565\nsamples = 9\nvalue = 1712.916"] ;
63 -> 64 ;
65 [label="squared_error = 0.0\nsamples = 1\nvalue = 1748.74"] ;
64 -> 65 ;
66 [label="squared_error = 4.659\nsamples = 8\nvalue = 1708.438"] ;
64 -> 66 ;
67 [label="squared_error = 0.0\nsamples = 1\nvalue = 1770.98"] ;
63 -> 67 ;
68 [label="H_degree <= 43.821\nsquared_error = 25.591\nsamples = 44\nvalue = 1836.07"] ;
56 -> 68 ;
69 [label="H_degree <= 37.731\nsquared_error = 7.822\nsamples = 43\nvalue = 1836.716"] ;
68 -> 69 ;
70 [label="H_degree <= 37.134\nsquared_error = 9.41\nsamples = 26\nvalue = 1837.394"] ;
69 -> 70 ;
71 [label="squared_error = 4.87\nsamples = 24\nvalue = 1836.757"] ;
70 -> 71 ;
72 [label="squared_error = 0.632\nsamples = 2\nvalue = 1845.035"] ;
70 -> 72 ;
73 [label="H_degree <= 39.881\nsquared_error = 3.616\nsamples = 17\nvalue = 1835.679"] ;
69 -> 73 ;
74 [label="squared_error = 2.682\nsamples = 6\nvalue = 1834.245"] ;
73 -> 74 ;
75 [label="squared_error = 2.392\nsamples = 11\nvalue = 1836.462"] ;
73 -> 75 ;
76 [label="squared_error = 0.0\nsamples = 1\nvalue = 1808.29"] ;
68 -> 76 ;
77 [label="H_degree <= 72.478\nsquared_error = 6675.459\nsamples = 105\nvalue = 1657.371"] ;
55 -> 77 ;
78 [label="H_degree <= 53.851\nsquared_error = 4302.267\nsamples = 96\nvalue = 1641.349"] ;
77 -> 78 ;
79 [label="H_degree <= 45.015\nsquared_error = 101.176\nsamples = 31\nvalue = 1710.421"] ;
78 -> 79 ;
80 [label="H_degree <= 44.776\nsquared_error = 153.579\nsamples = 3\nvalue = 1735.843"] ;
79 -> 80 ;
81 [label="squared_error = 9.09\nsamples = 2\nvalue = 1727.255"] ;
80 -> 81 ;
82 [label="squared_error = -0.0\nsamples = 1\nvalue = 1753.02"] ;
80 -> 82 ;
83 [label="H_degree <= 53.612\nsquared_error = 18.898\nsamples = 28\nvalue = 1707.697"] ;
79 -> 83 ;
84 [label="squared_error = 16.752\nsamples = 27\nvalue = 1708.016"] ;
83 -> 84 ;
85 [label="squared_error = 0.0\nsamples = 1\nvalue = 1699.09"] ;
83 -> 85 ;
86 [label="H_degree <= 69.373\nsquared_error = 2945.263\nsamples = 65\nvalue = 1608.406"] ;
78 -> 86 ;
87 [label="H_degree <= 61.612\nsquared_error = 1206.567\nsamples = 54\nvalue = 1588.627"] ;
86 -> 87 ;
88 [label="squared_error = 56.418\nsamples = 28\nvalue = 1604.316"] ;
87 -> 88 ;
89 [label="squared_error = 1894.663\nsamples = 26\nvalue = 1571.732"] ;
87 -> 89 ;
90 [label="H_degree <= 72.239\nsquared_error = 131.902\nsamples = 11\nvalue = 1705.505"] ;
86 -> 90 ;
91 [label="squared_error = 67.701\nsamples = 10\nvalue = 1702.853"] ;
90 -> 91 ;
92 [label="squared_error = 0.0\nsamples = 1\nvalue = 1732.03"] ;
90 -> 92 ;
93 [label="H_degree <= 72.716\nsquared_error = 44.768\nsamples = 9\nvalue = 1828.27"] ;
77 -> 93 ;
94 [label="squared_error = 0.0\nsamples = 1\nvalue = 1810.91"] ;
93 -> 94 ;
95 [label="H_degree <= 74.627\nsquared_error = 7.984\nsamples = 8\nvalue = 1830.44"] ;
93 -> 95 ;
96 [label="H_degree <= 73.672\nsquared_error = 6.367\nsamples = 7\nvalue = 1829.853"] ;
95 -> 96 ;
97 [label="squared_error = 1.287\nsamples = 3\nvalue = 1831.943"] ;
96 -> 97 ;
98 [label="squared_error = 4.44\nsamples = 4\nvalue = 1828.285"] ;
96 -> 98 ;
99 [label="squared_error = 0.0\nsamples = 1\nvalue = 1834.55"] ;
95 -> 99 ;
100 [label="H_degree <= 77.493\nsquared_error = 25683.726\nsamples = 17\nvalue = 2032.647"] ;
54 -> 100 ;
101 [label="H_degree <= 76.299\nsquared_error = 33325.737\nsamples = 9\nvalue = 1948.144"] ;
100 -> 101 ;
102 [label="H_degree <= 75.343\nsquared_error = 6050.021\nsamples = 5\nvalue = 2091.094"] ;
101 -> 102 ;
103 [label="squared_error = 0.0\nsamples = 1\nvalue = 1935.8"] ;
102 -> 103 ;
104 [label="H_degree <= 76.06\nsquared_error = 26.205\nsamples = 4\nvalue = 2129.918"] ;
102 -> 104 ;
105 [label="H_degree <= 75.821\nsquared_error = 4.414\nsamples = 3\nvalue = 2132.68"] ;
104 -> 105 ;
106 [label="squared_error = 2.723\nsamples = 2\nvalue = 2133.82"] ;
105 -> 106 ;
107 [label="squared_error = 0.0\nsamples = 1\nvalue = 2130.4"] ;
105 -> 107 ;
108 [label="squared_error = 0.0\nsamples = 1\nvalue = 2121.63"] ;
104 -> 108 ;
109 [label="H_degree <= 77.015\nsquared_error = 9948.14\nsamples = 4\nvalue = 1769.458"] ;
101 -> 109 ;
110 [label="H_degree <= 76.537\nsquared_error = 6953.208\nsamples = 3\nvalue = 1729.737"] ;
109 -> 110 ;
111 [label="squared_error = 0.0\nsamples = 1\nvalue = 1838.38"] ;
110 -> 111 ;
112 [label="H_degree <= 76.776\nsquared_error = 1577.281\nsamples = 2\nvalue = 1675.415"] ;
110 -> 112 ;
113 [label="squared_error = 0.0\nsamples = 1\nvalue = 1635.7"] ;
112 -> 113 ;
114 [label="squared_error = 0.0\nsamples = 1\nvalue = 1715.13"] ;
112 -> 114 ;
115 [label="squared_error = -0.0\nsamples = 1\nvalue = 1888.62"] ;
109 -> 115 ;
116 [label="H_degree <= 79.403\nsquared_error = 15.748\nsamples = 8\nvalue = 2127.712"] ;
100 -> 116 ;
117 [label="H_degree <= 78.567\nsquared_error = 11.383\nsamples = 6\nvalue = 2126.295"] ;
116 -> 117 ;
118 [label="H_degree <= 78.209\nsquared_error = 1.978\nsamples = 3\nvalue = 2129.287"] ;
117 -> 118 ;
119 [label="H_degree <= 77.97\nsquared_error = 0.006\nsamples = 2\nvalue = 2130.28"] ;
118 -> 119 ;
120 [label="squared_error = 0.0\nsamples = 1\nvalue = 2130.36"] ;
119 -> 120 ;
121 [label="squared_error = 0.0\nsamples = 1\nvalue = 2130.2"] ;
119 -> 121 ;
122 [label="squared_error = 0.0\nsamples = 1\nvalue = 2127.3"] ;
118 -> 122 ;
123 [label="H_degree <= 78.925\nsquared_error = 2.889\nsamples = 3\nvalue = 2123.303"] ;
117 -> 123 ;
124 [label="squared_error = 0.0\nsamples = 1\nvalue = 2121.0"] ;
123 -> 124 ;
125 [label="H_degree <= 79.164\nsquared_error = 0.354\nsamples = 2\nvalue = 2124.455"] ;
123 -> 125 ;
126 [label="squared_error = 0.0\nsamples = 1\nvalue = 2123.86"] ;
125 -> 126 ;
127 [label="squared_error = 0.0\nsamples = 1\nvalue = 2125.05"] ;
125 -> 127 ;
128 [label="H_degree <= 79.761\nsquared_error = 4.731\nsamples = 2\nvalue = 2131.965"] ;
116 -> 128 ;
129 [label="squared_error = 0.0\nsamples = 1\nvalue = 2129.79"] ;
128 -> 129 ;
130 [label="squared_error = -0.0\nsamples = 1\nvalue = 2134.14"] ;
128 -> 130 ;
}