digraph Tree {
node [shape=box, fontname="helvetica"] ;
edge [fontname="helvetica"] ;
0 [label="H_degree <= 49.77\nsquared_error = 180606.24\nsamples = 521\nvalue = 3384.967"] ;
1 [label="H_degree <= 32.074\nsquared_error = 19010.064\nsamples = 144\nvalue = 2904.688"] ;
0 -> 1 [labeldistance=2.5, labelangle=45, headlabel="True"] ;
2 [label="H_degree <= 3.594\nsquared_error = 2733.829\nsamples = 92\nvalue = 2812.002"] ;
1 -> 2 ;
3 [label="H_degree <= 3.18\nsquared_error = 39.209\nsamples = 10\nvalue = 2955.702"] ;
2 -> 3 ;
4 [label="H_degree <= 0.276\nsquared_error = 3.823\nsamples = 9\nvalue = 2957.696"] ;
3 -> 4 ;
5 [label="squared_error = 0.0\nsamples = 1\nvalue = 2962.4"] ;
4 -> 5 ;
6 [label="H_degree <= 2.765\nsquared_error = 1.188\nsamples = 8\nvalue = 2957.108"] ;
4 -> 6 ;
7 [label="H_degree <= 2.074\nsquared_error = 0.447\nsamples = 7\nvalue = 2956.77"] ;
6 -> 7 ;
8 [label="squared_error = 0.407\nsamples = 5\nvalue = 2956.562"] ;
7 -> 8 ;
9 [label="squared_error = 0.168\nsamples = 2\nvalue = 2957.29"] ;
7 -> 9 ;
10 [label="squared_error = 0.0\nsamples = 1\nvalue = 2959.47"] ;
6 -> 10 ;
11 [label="squared_error = -0.0\nsamples = 1\nvalue = 2937.76"] ;
3 -> 11 ;
12 [label="H_degree <= 5.392\nsquared_error = 237.094\nsamples = 82\nvalue = 2794.478"] ;
2 -> 12 ;
13 [label="H_degree <= 4.977\nsquared_error = 117.17\nsamples = 4\nvalue = 2848.375"] ;
12 -> 13 ;
14 [label="H_degree <= 4.424\nsquared_error = 20.349\nsamples = 3\nvalue = 2854.203"] ;
13 -> 14 ;
15 [label="H_degree <= 4.009\nsquared_error = 6.554\nsamples = 2\nvalue = 2857.03"] ;
14 -> 15 ;
16 [label="squared_error = 0.0\nsamples = 1\nvalue = 2854.47"] ;
15 -> 16 ;
17 [label="squared_error = 0.0\nsamples = 1\nvalue = 2859.59"] ;
15 -> 17 ;
18 [label="squared_error = -0.0\nsamples = 1\nvalue = 2848.55"] ;
14 -> 18 ;
19 [label="squared_error = 0.0\nsamples = 1\nvalue = 2830.89"] ;
13 -> 19 ;
20 [label="H_degree <= 10.645\nsquared_error = 86.635\nsamples = 78\nvalue = 2791.714"] ;
12 -> 20 ;
21 [label="H_degree <= 7.051\nsquared_error = 8.032\nsamples = 15\nvalue = 2807.179"] ;
20 -> 21 ;
22 [label="H_degree <= 6.083\nsquared_error = 5.094\nsamples = 5\nvalue = 2808.67"] ;
21 -> 22 ;
23 [label="squared_error = 2.372\nsamples = 2\nvalue = 2806.37"] ;
22 -> 23 ;
24 [label="squared_error = 1.031\nsamples = 3\nvalue = 2810.203"] ;
22 -> 24 ;
25 [label="H_degree <= 7.88\nsquared_error = 7.833\nsamples = 10\nvalue = 2806.433"] ;
21 -> 25 ;
26 [label="squared_error = 0.161\nsamples = 3\nvalue = 2804.017"] ;
25 -> 26 ;
27 [label="squared_error = 7.547\nsamples = 7\nvalue = 2807.469"] ;
25 -> 27 ;
28 [label="H_degree <= 31.659\nsquared_error = 34.851\nsamples = 63\nvalue = 2788.032"] ;
20 -> 28 ;
29 [label="H_degree <= 29.862\nsquared_error = 15.998\nsamples = 62\nvalue = 2787.477"] ;
28 -> 29 ;
30 [label="squared_error = 11.012\nsamples = 57\nvalue = 2786.922"] ;
29 -> 30 ;
31 [label="squared_error = 29.37\nsamples = 5\nvalue = 2793.798"] ;
29 -> 31 ;
32 [label="squared_error = -0.0\nsamples = 1\nvalue = 2822.45"] ;
28 -> 32 ;
33 [label="H_degree <= 41.336\nsquared_error = 5717.681\nsamples = 52\nvalue = 3068.67"] ;
1 -> 33 ;
34 [label="H_degree <= 37.189\nsquared_error = 280.437\nsamples = 27\nvalue = 3000.328"] ;
33 -> 34 ;
35 [label="H_degree <= 36.912\nsquared_error = 20.762\nsamples = 14\nvalue = 2984.634"] ;
34 -> 35 ;
36 [label="H_degree <= 32.488\nsquared_error = 8.0\nsamples = 13\nvalue = 2983.622"] ;
35 -> 36 ;
37 [label="squared_error = 0.0\nsamples = 1\nvalue = 2991.46"] ;
36 -> 37 ;
38 [label="H_degree <= 32.765\nsquared_error = 3.12\nsamples = 12\nvalue = 2982.968"] ;
36 -> 38 ;
39 [label="squared_error = 0.0\nsamples = 1\nvalue = 2979.8"] ;
38 -> 39 ;
40 [label="squared_error = 2.408\nsamples = 11\nvalue = 2983.256"] ;
38 -> 40 ;
41 [label="squared_error = -0.0\nsamples = 1\nvalue = 2997.8"] ;
35 -> 41 ;
42 [label="H_degree <= 38.018\nsquared_error = 9.224\nsamples = 13\nvalue = 3017.228"] ;
34 -> 42 ;
43 [label="H_degree <= 37.742\nsquared_error = 1.195\nsamples = 3\nvalue = 3021.483"] ;
42 -> 43 ;
44 [label="H_degree <= 37.465\nsquared_error = 0.245\nsamples = 2\nvalue = 3020.765"] ;
43 -> 44 ;
45 [label="squared_error = 0.0\nsamples = 1\nvalue = 3021.26"] ;
44 -> 45 ;
46 [label="squared_error = -0.0\nsamples = 1\nvalue = 3020.27"] ;
44 -> 46 ;
47 [label="squared_error = 0.0\nsamples = 1\nvalue = 3022.92"] ;
43 -> 47 ;
48 [label="H_degree <= 39.677\nsquared_error = 4.572\nsamples = 10\nvalue = 3015.952"] ;
42 -> 48 ;
49 [label="H_degree <= 38.295\nsquared_error = 1.158\nsamples = 4\nvalue = 3017.442"] ;
48 -> 49 ;
50 [label="squared_error = 0.0\nsamples = 1\nvalue = 3015.63"] ;
49 -> 50 ;
51 [label="squared_error = 0.084\nsamples = 3\nvalue = 3018.047"] ;
49 -> 51 ;
52 [label="H_degree <= 41.06\nsquared_error = 4.379\nsamples = 6\nvalue = 3014.958"] ;
48 -> 52 ;
53 [label="squared_error = 4.35\nsamples = 5\nvalue = 3014.57"] ;
52 -> 53 ;
54 [label="squared_error = 0.0\nsamples = 1\nvalue = 3016.9"] ;
52 -> 54 ;
55 [label="H_degree <= 45.207\nsquared_error = 1097.852\nsamples = 25\nvalue = 3142.479"] ;
33 -> 55 ;
56 [label="H_degree <= 41.613\nsquared_error = 83.802\nsamples = 12\nvalue = 3109.272"] ;
55 -> 56 ;
57 [label="squared_error = 0.0\nsamples = 1\nvalue = 3079.72"] ;
56 -> 57 ;
58 [label="H_degree <= 43.548\nsquared_error = 4.812\nsamples = 11\nvalue = 3111.958"] ;
56 -> 58 ;
59 [label="H_degree <= 43.272\nsquared_error = 5.093\nsamples = 6\nvalue = 3113.2"] ;
58 -> 59 ;
60 [label="squared_error = 3.966\nsamples = 5\nvalue = 3112.602"] ;
59 -> 60 ;
61 [label="squared_error = -0.0\nsamples = 1\nvalue = 3116.19"] ;
59 -> 61 ;
62 [label="H_degree <= 44.101\nsquared_error = 0.403\nsamples = 5\nvalue = 3110.468"] ;
58 -> 62 ;
63 [label="squared_error = 0.226\nsamples = 2\nvalue = 3111.125"] ;
62 -> 63 ;
64 [label="squared_error = 0.042\nsamples = 3\nvalue = 3110.03"] ;
62 -> 64 ;
65 [label="H_degree <= 47.281\nsquared_error = 76.419\nsamples = 13\nvalue = 3173.132"] ;
55 -> 65 ;
66 [label="H_degree <= 45.622\nsquared_error = 15.598\nsamples = 6\nvalue = 3164.47"] ;
65 -> 66 ;
67 [label="squared_error = 0.0\nsamples = 1\nvalue = 3158.55"] ;
66 -> 67 ;
68 [label="H_degree <= 46.037\nsquared_error = 10.307\nsamples = 5\nvalue = 3165.654"] ;
66 -> 68 ;
69 [label="squared_error = 0.0\nsamples = 1\nvalue = 3171.75"] ;
68 -> 69 ;
70 [label="squared_error = 1.271\nsamples = 4\nvalue = 3164.13"] ;
68 -> 70 ;
71 [label="H_degree <= 48.249\nsquared_error = 9.127\nsamples = 7\nvalue = 3180.556"] ;
65 -> 71 ;
72 [label="H_degree <= 47.972\nsquared_error = 2.149\nsamples = 3\nvalue = 3182.67"] ;
71 -> 72 ;
73 [label="squared_error = 0.133\nsamples = 2\nvalue = 3181.655"] ;
72 -> 73 ;
74 [label="squared_error = -0.0\nsamples = 1\nvalue = 3184.7"] ;
72 -> 74 ;
75 [label="H_degree <= 49.078\nsquared_error = 8.493\nsamples = 4\nvalue = 3178.97"] ;
71 -> 75 ;
76 [label="squared_error = 0.846\nsamples = 2\nvalue = 3176.31"] ;
75 -> 76 ;
77 [label="squared_error = 1.988\nsamples = 2\nvalue = 3181.63"] ;
75 -> 77 ;
78 [label="H_degree <= 132.995\nsquared_error = 120569.954\nsamples = 377\nvalue = 3568.415"] ;
0 -> 78 [labeldistance=2.5, labelangle=-45, headlabel="False"] ;
79 [label="H_degree <= 90.829\nsquared_error = 124324.259\nsamples = 235\nvalue = 3715.787"] ;
78 -> 79 ;
80 [label="H_degree <= 84.885\nsquared_error = 14776.002\nsamples = 124\nvalue = 3422.583"] ;
79 -> 80 ;
81 [label="H_degree <= 56.129\nsquared_error = 10246.237\nsamples = 106\nvalue = 3390.82"] ;
80 -> 81 ;
82 [label="H_degree <= 54.055\nsquared_error = 133.593\nsamples = 20\nvalue = 3254.301"] ;
81 -> 82 ;
83 [label="H_degree <= 50.737\nsquared_error = 29.728\nsamples = 14\nvalue = 3248.241"] ;
82 -> 83 ;
84 [label="squared_error = 45.332\nsamples = 3\nvalue = 3255.64"] ;
83 -> 84 ;
85 [label="squared_error = 6.473\nsamples = 11\nvalue = 3246.224"] ;
83 -> 85 ;
86 [label="H_degree <= 54.332\nsquared_error = 90.356\nsamples = 6\nvalue = 3268.44"] ;
82 -> 86 ;
87 [label="squared_error = 0.0\nsamples = 1\nvalue = 3259.89"] ;
86 -> 87 ;
88 [label="squared_error = 90.882\nsamples = 5\nvalue = 3270.15"] ;
86 -> 88 ;
89 [label="H_degree <= 82.949\nsquared_error = 7255.776\nsamples = 86\nvalue = 3422.568"] ;
81 -> 89 ;
90 [label="H_degree <= 75.899\nsquared_error = 521.455\nsamples = 80\nvalue = 3444.398"] ;
89 -> 90 ;
91 [label="squared_error = 144.319\nsamples = 57\nvalue = 3433.659"] ;
90 -> 91 ;
92 [label="squared_error = 462.08\nsamples = 23\nvalue = 3471.01"] ;
90 -> 92 ;
93 [label="H_degree <= 83.364\nsquared_error = 5977.154\nsamples = 6\nvalue = 3131.508"] ;
89 -> 93 ;
94 [label="squared_error = 0.0\nsamples = 1\nvalue = 3255.98"] ;
93 -> 94 ;
95 [label="squared_error = 3454.218\nsamples = 5\nvalue = 3106.614"] ;
93 -> 95 ;
96 [label="H_degree <= 90.277\nsquared_error = 523.369\nsamples = 18\nvalue = 3609.63"] ;
80 -> 96 ;
97 [label="H_degree <= 86.406\nsquared_error = 59.807\nsamples = 17\nvalue = 3604.389"] ;
96 -> 97 ;
98 [label="H_degree <= 86.129\nsquared_error = 9.512\nsamples = 5\nvalue = 3595.288"] ;
97 -> 98 ;
99 [label="squared_error = 2.635\nsamples = 4\nvalue = 3593.928"] ;
98 -> 99 ;
100 [label="squared_error = 0.0\nsamples = 1\nvalue = 3600.73"] ;
98 -> 100 ;
101 [label="H_degree <= 89.447\nsquared_error = 31.867\nsamples = 12\nvalue = 3608.182"] ;
97 -> 101 ;
102 [label="squared_error = 20.731\nsamples = 9\nvalue = 3605.896"] ;
101 -> 102 ;
103 [label="squared_error = 2.562\nsamples = 3\nvalue = 3615.04"] ;
101 -> 103 ;
104 [label="squared_error = -0.0\nsamples = 1\nvalue = 3698.72"] ;
96 -> 104 ;
105 [label="H_degree <= 125.945\nsquared_error = 43379.823\nsamples = 111\nvalue = 4043.331"] ;
79 -> 105 ;
106 [label="H_degree <= 93.594\nsquared_error = 15913.103\nsamples = 94\nvalue = 4115.835"] ;
105 -> 106 ;
107 [label="H_degree <= 91.521\nsquared_error = 1871.241\nsamples = 6\nvalue = 3823.368"] ;
106 -> 107 ;
108 [label="squared_error = 0.0\nsamples = 1\nvalue = 3780.07"] ;
107 -> 108 ;
109 [label="H_degree <= 92.212\nsquared_error = 1795.55\nsamples = 5\nvalue = 3832.028"] ;
107 -> 109 ;
110 [label="squared_error = 0.0\nsamples = 1\nvalue = 3906.65"] ;
109 -> 110 ;
111 [label="squared_error = 504.299\nsamples = 4\nvalue = 3813.372"] ;
109 -> 111 ;
112 [label="H_degree <= 95.806\nsquared_error = 10640.816\nsamples = 88\nvalue = 4135.776"] ;
106 -> 112 ;
113 [label="H_degree <= 94.009\nsquared_error = 38807.081\nsamples = 6\nvalue = 4448.51"] ;
112 -> 113 ;
114 [label="squared_error = 0.0\nsamples = 1\nvalue = 4058.02"] ;
113 -> 114 ;
115 [label="squared_error = 9972.712\nsamples = 5\nvalue = 4526.608"] ;
113 -> 115 ;
116 [label="H_degree <= 97.327\nsquared_error = 899.945\nsamples = 82\nvalue = 4112.893"] ;
112 -> 116 ;
117 [label="squared_error = 1146.272\nsamples = 5\nvalue = 4204.888"] ;
116 -> 117 ;
118 [label="squared_error = 298.711\nsamples = 77\nvalue = 4106.919"] ;
116 -> 118 ;
119 [label="H_degree <= 129.124\nsquared_error = 5465.927\nsamples = 17\nvalue = 3642.43"] ;
105 -> 119 ;
120 [label="H_degree <= 127.742\nsquared_error = 1068.818\nsamples = 6\nvalue = 3738.883"] ;
119 -> 120 ;
121 [label="H_degree <= 127.327\nsquared_error = 16.01\nsamples = 3\nvalue = 3754.327"] ;
120 -> 121 ;
122 [label="squared_error = 5.688\nsamples = 2\nvalue = 3751.855"] ;
121 -> 122 ;
123 [label="squared_error = -0.0\nsamples = 1\nvalue = 3759.27"] ;
121 -> 123 ;
124 [label="H_degree <= 128.295\nsquared_error = 1644.632\nsamples = 3\nvalue = 3723.44"] ;
120 -> 124 ;
125 [label="squared_error = 0.0\nsamples = 1\nvalue = 3666.27"] ;
124 -> 125 ;
126 [label="squared_error = 15.642\nsamples = 2\nvalue = 3752.025"] ;
124 -> 126 ;
127 [label="H_degree <= 132.028\nsquared_error = 21.944\nsamples = 11\nvalue = 3589.819"] ;
119 -> 127 ;
128 [label="H_degree <= 129.677\nsquared_error = 6.847\nsamples = 9\nvalue = 3588.273"] ;
127 -> 128 ;
129 [label="squared_error = 0.0\nsamples = 1\nvalue = 3594.9"] ;
128 -> 129 ;
130 [label="squared_error = 1.527\nsamples = 8\nvalue = 3587.445"] ;
128 -> 130 ;
131 [label="H_degree <= 132.442\nsquared_error = 30.747\nsamples = 2\nvalue = 3596.775"] ;
127 -> 131 ;
132 [label="squared_error = 0.0\nsamples = 1\nvalue = 3602.32"] ;
131 -> 132 ;
133 [label="squared_error = -0.0\nsamples = 1\nvalue = 3591.23"] ;
131 -> 133 ;
134 [label="H_degree <= 141.567\nsquared_error = 18931.963\nsamples = 142\nvalue = 3324.525"] ;
78 -> 134 ;
135 [label="H_degree <= 138.387\nsquared_error = 31.709\nsamples = 28\nvalue = 3464.285"] ;
134 -> 135 ;
136 [label="H_degree <= 136.175\nsquared_error = 20.008\nsamples = 18\nvalue = 3461.762"] ;
135 -> 136 ;
137 [label="H_degree <= 133.41\nsquared_error = 5.677\nsamples = 11\nvalue = 3463.995"] ;
136 -> 137 ;
138 [label="squared_error = 0.0\nsamples = 1\nvalue = 3459.72"] ;
137 -> 138 ;
139 [label="H_degree <= 135.899\nsquared_error = 4.234\nsamples = 10\nvalue = 3464.423"] ;
137 -> 139 ;
140 [label="squared_error = 4.167\nsamples = 9\nvalue = 3464.191"] ;
139 -> 140 ;
141 [label="squared_error = -0.0\nsamples = 1\nvalue = 3466.51"] ;
139 -> 141 ;
142 [label="H_degree <= 136.728\nsquared_error = 22.365\nsamples = 7\nvalue = 3458.251"] ;
136 -> 142 ;
143 [label="H_degree <= 136.452\nsquared_error = 3.386\nsamples = 2\nvalue = 3451.02"] ;
142 -> 143 ;
144 [label="squared_error = 0.0\nsamples = 1\nvalue = 3452.86"] ;
143 -> 144 ;
145 [label="squared_error = -0.0\nsamples = 1\nvalue = 3449.18"] ;
143 -> 145 ;
146 [label="H_degree <= 138.111\nsquared_error = 0.673\nsamples = 5\nvalue = 3461.144"] ;
142 -> 146 ;
147 [label="squared_error = 0.567\nsamples = 4\nvalue = 3460.91"] ;
146 -> 147 ;
148 [label="squared_error = -0.0\nsamples = 1\nvalue = 3462.08"] ;
146 -> 148 ;
149 [label="H_degree <= 140.876\nsquared_error = 20.671\nsamples = 10\nvalue = 3468.828"] ;
135 -> 149 ;
150 [label="H_degree <= 139.77\nsquared_error = 19.321\nsamples = 8\nvalue = 3467.694"] ;
149 -> 150 ;
151 [label="H_degree <= 138.664\nsquared_error = 8.819\nsamples = 4\nvalue = 3470.455"] ;
150 -> 151 ;
152 [label="squared_error = 0.0\nsamples = 1\nvalue = 3466.37"] ;
151 -> 152 ;
153 [label="squared_error = 4.342\nsamples = 3\nvalue = 3471.817"] ;
151 -> 153 ;
154 [label="H_degree <= 140.323\nsquared_error = 14.574\nsamples = 4\nvalue = 3464.932"] ;
150 -> 154 ;
155 [label="squared_error = 15.445\nsamples = 2\nvalue = 3462.37"] ;
154 -> 155 ;
156 [label="squared_error = 0.57\nsamples = 2\nvalue = 3467.495"] ;
154 -> 156 ;
157 [label="H_degree <= 141.152\nsquared_error = 0.342\nsamples = 2\nvalue = 3473.365"] ;
149 -> 157 ;
158 [label="squared_error = 0.0\nsamples = 1\nvalue = 3472.78"] ;
157 -> 158 ;
159 [label="squared_error = 0.0\nsamples = 1\nvalue = 3473.95"] ;
157 -> 159 ;
160 [label="H_degree <= 144.885\nsquared_error = 17598.248\nsamples = 114\nvalue = 3290.198"] ;
134 -> 160 ;
161 [label="H_degree <= 142.535\nsquared_error = 10726.581\nsamples = 9\nvalue = 3091.657"] ;
160 -> 161 ;
162 [label="H_degree <= 142.12\nsquared_error = 5620.501\nsamples = 2\nvalue = 3271.19"] ;
161 -> 162 ;
163 [label="squared_error = 0.0\nsamples = 1\nvalue = 3346.16"] ;
162 -> 163 ;
164 [label="squared_error = 0.0\nsamples = 1\nvalue = 3196.22"] ;
162 -> 164 ;
165 [label="H_degree <= 144.47\nsquared_error = 345.055\nsamples = 7\nvalue = 3040.361"] ;
161 -> 165 ;
166 [label="H_degree <= 144.194\nsquared_error = 95.197\nsamples = 6\nvalue = 3033.735"] ;
165 -> 166 ;
167 [label="squared_error = 50.275\nsamples = 5\nvalue = 3030.47"] ;
166 -> 167 ;
168 [label="squared_error = 0.0\nsamples = 1\nvalue = 3050.06"] ;
166 -> 168 ;
169 [label="squared_error = 0.0\nsamples = 1\nvalue = 3080.12"] ;
165 -> 169 ;
170 [label="H_degree <= 178.756\nsquared_error = 14518.884\nsamples = 105\nvalue = 3307.216"] ;
160 -> 170 ;
171 [label="H_degree <= 151.935\nsquared_error = 5801.065\nsamples = 100\nvalue = 3294.82"] ;
170 -> 171 ;
172 [label="H_degree <= 148.341\nsquared_error = 436.106\nsamples = 20\nvalue = 3332.234"] ;
171 -> 172 ;
173 [label="squared_error = 97.304\nsamples = 9\nvalue = 3318.696"] ;
172 -> 173 ;
174 [label="squared_error = 440.645\nsamples = 11\nvalue = 3343.311"] ;
172 -> 174 ;
175 [label="H_degree <= 162.442\nsquared_error = 6704.858\nsamples = 80\nvalue = 3285.466"] ;
171 -> 175 ;
176 [label="squared_error = 668.475\nsamples = 30\nvalue = 3247.102"] ;
175 -> 176 ;
177 [label="squared_error = 8913.779\nsamples = 50\nvalue = 3308.484"] ;
175 -> 177 ;
178 [label="H_degree <= 179.585\nsquared_error = 124331.61\nsamples = 5\nvalue = 3555.148"] ;
170 -> 178 ;
179 [label="H_degree <= 179.032\nsquared_error = 63487.659\nsamples = 3\nvalue = 3787.643"] ;
178 -> 179 ;
180 [label="squared_error = 0.0\nsamples = 1\nvalue = 3437.92"] ;
179 -> 180 ;
181 [label="squared_error = 3501.681\nsamples = 2\nvalue = 3962.505"] ;
179 -> 181 ;
182 [label="H_degree <= 179.862\nsquared_error = 12894.738\nsamples = 2\nvalue = 3206.405"] ;
178 -> 182 ;
183 [label="squared_error = 0.0\nsamples = 1\nvalue = 3319.96"] ;
182 -> 183 ;
184 [label="squared_error = 0.0\nsamples = 1\nvalue = 3092.85"] ;
182 -> 184 ;
}