digraph Tree {
node [shape=box, fontname="helvetica"] ;
edge [fontname="helvetica"] ;
0 [label="H_degree <= 44.219\nsquared_error = 68095.613\nsamples = 600\nvalue = 1666.67"] ;
1 [label="H_degree <= -154.286\nsquared_error = 59659.658\nsamples = 383\nvalue = 1574.51"] ;
0 -> 1 [labeldistance=2.5, labelangle=45, headlabel="True"] ;
2 [label="H_degree <= -178.318\nsquared_error = 23587.306\nsamples = 47\nvalue = 1884.193"] ;
1 -> 2 ;
3 [label="H_degree <= -179.519\nsquared_error = 513.976\nsamples = 3\nvalue = 1307.49"] ;
2 -> 3 ;
4 [label="squared_error = 0.0\nsamples = 1\nvalue = 1338.62"] ;
3 -> 4 ;
5 [label="H_degree <= -178.798\nsquared_error = 44.156\nsamples = 2\nvalue = 1291.925"] ;
3 -> 5 ;
6 [label="squared_error = 0.0\nsamples = 1\nvalue = 1298.57"] ;
5 -> 6 ;
7 [label="squared_error = 0.0\nsamples = 1\nvalue = 1285.28"] ;
5 -> 7 ;
8 [label="H_degree <= -154.766\nsquared_error = 938.015\nsamples = 44\nvalue = 1923.514"] ;
2 -> 8 ;
9 [label="H_degree <= -176.395\nsquared_error = 213.598\nsamples = 43\nvalue = 1927.632"] ;
8 -> 9 ;
10 [label="H_degree <= -176.876\nsquared_error = 107.277\nsamples = 4\nvalue = 1908.632"] ;
9 -> 10 ;
11 [label="H_degree <= -177.837\nsquared_error = 41.933\nsamples = 3\nvalue = 1913.66"] ;
10 -> 11 ;
12 [label="squared_error = 0.0\nsamples = 1\nvalue = 1922.78"] ;
11 -> 12 ;
13 [label="squared_error = 0.518\nsamples = 2\nvalue = 1909.1"] ;
11 -> 13 ;
14 [label="squared_error = -0.0\nsamples = 1\nvalue = 1893.55"] ;
10 -> 14 ;
15 [label="H_degree <= -171.348\nsquared_error = 183.681\nsamples = 39\nvalue = 1929.581"] ;
9 -> 15 ;
16 [label="H_degree <= -173.511\nsquared_error = 208.423\nsamples = 9\nvalue = 1923.488"] ;
15 -> 16 ;
17 [label="squared_error = 184.167\nsamples = 6\nvalue = 1929.38"] ;
16 -> 17 ;
18 [label="squared_error = 48.624\nsamples = 3\nvalue = 1911.703"] ;
16 -> 18 ;
19 [label="H_degree <= -155.247\nsquared_error = 161.78\nsamples = 30\nvalue = 1931.409"] ;
15 -> 19 ;
20 [label="squared_error = 149.954\nsamples = 29\nvalue = 1932.17"] ;
19 -> 20 ;
21 [label="squared_error = 0.0\nsamples = 1\nvalue = 1909.32"] ;
19 -> 21 ;
22 [label="squared_error = 0.0\nsamples = 1\nvalue = 1746.43"] ;
8 -> 22 ;
23 [label="H_degree <= -67.77\nsquared_error = 49413.834\nsamples = 336\nvalue = 1531.191"] ;
1 -> 23 ;
24 [label="H_degree <= -142.991\nsquared_error = 7164.522\nsamples = 141\nvalue = 1405.122"] ;
23 -> 24 ;
25 [label="H_degree <= -150.921\nsquared_error = 5141.615\nsamples = 18\nvalue = 1592.641"] ;
24 -> 25 ;
26 [label="H_degree <= -152.844\nsquared_error = 10.244\nsamples = 6\nvalue = 1684.257"] ;
25 -> 26 ;
27 [label="H_degree <= -153.565\nsquared_error = 0.469\nsamples = 2\nvalue = 1681.025"] ;
26 -> 27 ;
28 [label="squared_error = 0.0\nsamples = 1\nvalue = 1681.71"] ;
27 -> 28 ;
29 [label="squared_error = -0.0\nsamples = 1\nvalue = 1680.34"] ;
27 -> 29 ;
30 [label="H_degree <= -151.402\nsquared_error = 7.298\nsamples = 4\nvalue = 1685.872"] ;
26 -> 30 ;
31 [label="squared_error = 2.647\nsamples = 3\nvalue = 1687.203"] ;
30 -> 31 ;
32 [label="squared_error = -0.0\nsamples = 1\nvalue = 1681.88"] ;
30 -> 32 ;
33 [label="H_degree <= -147.557\nsquared_error = 1412.243\nsamples = 12\nvalue = 1546.833"] ;
25 -> 33 ;
34 [label="H_degree <= -148.518\nsquared_error = 34.899\nsamples = 5\nvalue = 1590.598"] ;
33 -> 34 ;
35 [label="squared_error = 8.099\nsamples = 4\nvalue = 1587.932"] ;
34 -> 35 ;
36 [label="squared_error = -0.0\nsamples = 1\nvalue = 1601.26"] ;
34 -> 36 ;
37 [label="H_degree <= -145.634\nsquared_error = 50.738\nsamples = 7\nvalue = 1515.573"] ;
33 -> 37 ;
38 [label="squared_error = 39.269\nsamples = 3\nvalue = 1512.66"] ;
37 -> 38 ;
39 [label="squared_error = 48.204\nsamples = 4\nvalue = 1517.758"] ;
37 -> 39 ;
40 [label="H_degree <= -75.461\nsquared_error = 1561.619\nsamples = 123\nvalue = 1377.68"] ;
24 -> 40 ;
41 [label="H_degree <= -137.223\nsquared_error = 935.754\nsamples = 112\nvalue = 1369.541"] ;
40 -> 41 ;
42 [label="H_degree <= -140.828\nsquared_error = 204.813\nsamples = 9\nvalue = 1438.297"] ;
41 -> 42 ;
43 [label="squared_error = 12.094\nsamples = 3\nvalue = 1420.583"] ;
42 -> 43 ;
44 [label="squared_error = 65.851\nsamples = 6\nvalue = 1447.153"] ;
42 -> 44 ;
45 [label="H_degree <= -86.515\nsquared_error = 550.462\nsamples = 103\nvalue = 1363.533"] ;
41 -> 45 ;
46 [label="squared_error = 512.974\nsamples = 85\nvalue = 1358.591"] ;
45 -> 46 ;
47 [label="squared_error = 67.402\nsamples = 18\nvalue = 1386.873"] ;
45 -> 47 ;
48 [label="H_degree <= -73.057\nsquared_error = 392.61\nsamples = 11\nvalue = 1460.547"] ;
40 -> 48 ;
49 [label="H_degree <= -74.499\nsquared_error = 213.254\nsamples = 4\nvalue = 1474.78"] ;
48 -> 49 ;
50 [label="squared_error = 112.997\nsamples = 2\nvalue = 1463.94"] ;
49 -> 50 ;
51 [label="squared_error = 78.5\nsamples = 2\nvalue = 1485.62"] ;
49 -> 51 ;
52 [label="H_degree <= -72.577\nsquared_error = 313.2\nsamples = 7\nvalue = 1452.414"] ;
48 -> 52 ;
53 [label="squared_error = 0.0\nsamples = 1\nvalue = 1425.5"] ;
52 -> 53 ;
54 [label="squared_error = 224.548\nsamples = 6\nvalue = 1456.9"] ;
52 -> 54 ;
55 [label="H_degree <= -18.745\nsquared_error = 60161.482\nsamples = 195\nvalue = 1622.348"] ;
23 -> 55 ;
56 [label="H_degree <= -54.793\nsquared_error = 25306.921\nsamples = 92\nvalue = 1843.548"] ;
55 -> 56 ;
57 [label="H_degree <= -62.483\nsquared_error = 4280.379\nsamples = 24\nvalue = 1591.615"] ;
56 -> 57 ;
58 [label="H_degree <= -64.406\nsquared_error = 31.52\nsamples = 11\nvalue = 1530.182"] ;
57 -> 58 ;
59 [label="squared_error = 7.944\nsamples = 7\nvalue = 1527.524"] ;
58 -> 59 ;
60 [label="squared_error = 38.791\nsamples = 4\nvalue = 1534.832"] ;
58 -> 60 ;
61 [label="H_degree <= -58.158\nsquared_error = 1980.112\nsamples = 13\nvalue = 1643.596"] ;
57 -> 61 ;
62 [label="squared_error = 87.957\nsamples = 8\nvalue = 1609.355"] ;
61 -> 62 ;
63 [label="squared_error = 130.139\nsamples = 5\nvalue = 1698.382"] ;
61 -> 63 ;
64 [label="H_degree <= -20.668\nsquared_error = 2420.381\nsamples = 68\nvalue = 1932.466"] ;
56 -> 64 ;
65 [label="H_degree <= -47.824\nsquared_error = 90.543\nsamples = 65\nvalue = 1942.826"] ;
64 -> 65 ;
66 [label="squared_error = 66.603\nsamples = 13\nvalue = 1936.83"] ;
65 -> 66 ;
67 [label="squared_error = 85.293\nsamples = 52\nvalue = 1944.325"] ;
65 -> 67 ;
68 [label="H_degree <= -19.226\nsquared_error = 185.262\nsamples = 3\nvalue = 1707.99"] ;
64 -> 68 ;
69 [label="squared_error = 6.003\nsamples = 2\nvalue = 1698.47"] ;
68 -> 69 ;
70 [label="squared_error = 0.0\nsamples = 1\nvalue = 1727.03"] ;
68 -> 70 ;
71 [label="H_degree <= 34.846\nsquared_error = 8553.473\nsamples = 103\nvalue = 1424.772"] ;
55 -> 71 ;
72 [label="H_degree <= -12.977\nsquared_error = 4398.796\nsamples = 90\nvalue = 1400.217"] ;
71 -> 72 ;
73 [label="H_degree <= -15.621\nsquared_error = 1743.227\nsamples = 8\nvalue = 1576.138"] ;
72 -> 73 ;
74 [label="squared_error = 60.453\nsamples = 4\nvalue = 1617.137"] ;
73 -> 74 ;
75 [label="squared_error = 64.0\nsamples = 4\nvalue = 1535.138"] ;
73 -> 75 ;
76 [label="H_degree <= 28.838\nsquared_error = 1343.98\nsamples = 82\nvalue = 1383.054"] ;
72 -> 76 ;
77 [label="squared_error = 866.098\nsamples = 73\nvalue = 1375.037"] ;
76 -> 77 ;
78 [label="squared_error = 470.094\nsamples = 9\nvalue = 1448.082"] ;
76 -> 78 ;
79 [label="H_degree <= 41.335\nsquared_error = 4243.234\nsamples = 13\nvalue = 1594.769"] ;
71 -> 79 ;
80 [label="H_degree <= 37.73\nsquared_error = 1497.749\nsamples = 10\nvalue = 1564.338"] ;
79 -> 80 ;
81 [label="squared_error = 24.046\nsamples = 5\nvalue = 1526.42"] ;
80 -> 81 ;
82 [label="squared_error = 95.903\nsamples = 5\nvalue = 1602.256"] ;
80 -> 82 ;
83 [label="H_degree <= 43.017\nsquared_error = 18.431\nsamples = 3\nvalue = 1696.207"] ;
79 -> 83 ;
84 [label="squared_error = 7.728\nsamples = 2\nvalue = 1693.63"] ;
83 -> 84 ;
85 [label="squared_error = 0.0\nsamples = 1\nvalue = 1701.36"] ;
83 -> 85 ;
86 [label="H_degree <= 145.634\nsquared_error = 41535.06\nsamples = 217\nvalue = 1829.332"] ;
0 -> 86 [labeldistance=2.5, labelangle=-45, headlabel="False"] ;
87 [label="H_degree <= 82.67\nsquared_error = 147.784\nsamples = 163\nvalue = 1942.965"] ;
86 -> 87 ;
88 [label="H_degree <= 72.577\nsquared_error = 156.001\nsamples = 62\nvalue = 1946.417"] ;
87 -> 88 ;
89 [label="H_degree <= 49.025\nsquared_error = 134.42\nsamples = 46\nvalue = 1943.045"] ;
88 -> 89 ;
90 [label="H_degree <= 48.304\nsquared_error = 125.654\nsamples = 6\nvalue = 1938.635"] ;
89 -> 90 ;
91 [label="H_degree <= 47.583\nsquared_error = 96.172\nsamples = 5\nvalue = 1941.652"] ;
90 -> 91 ;
92 [label="squared_error = 66.111\nsamples = 4\nvalue = 1938.362"] ;
91 -> 92 ;
93 [label="squared_error = 0.0\nsamples = 1\nvalue = 1954.81"] ;
91 -> 93 ;
94 [label="squared_error = 0.0\nsamples = 1\nvalue = 1923.55"] ;
90 -> 94 ;
95 [label="H_degree <= 49.506\nsquared_error = 132.38\nsamples = 40\nvalue = 1943.707"] ;
89 -> 95 ;
96 [label="squared_error = 0.0\nsamples = 1\nvalue = 1960.94"] ;
95 -> 96 ;
97 [label="H_degree <= 61.282\nsquared_error = 127.964\nsamples = 39\nvalue = 1943.265"] ;
95 -> 97 ;
98 [label="squared_error = 80.369\nsamples = 19\nvalue = 1945.501"] ;
97 -> 98 ;
99 [label="squared_error = 163.918\nsamples = 20\nvalue = 1941.141"] ;
97 -> 99 ;
100 [label="H_degree <= 81.709\nsquared_error = 91.422\nsamples = 16\nvalue = 1956.109"] ;
88 -> 100 ;
101 [label="H_degree <= 78.344\nsquared_error = 79.379\nsamples = 15\nvalue = 1955.045"] ;
100 -> 101 ;
102 [label="H_degree <= 77.624\nsquared_error = 62.068\nsamples = 10\nvalue = 1958.845"] ;
101 -> 102 ;
103 [label="squared_error = 27.371\nsamples = 9\nvalue = 1956.806"] ;
102 -> 103 ;
104 [label="squared_error = 0.0\nsamples = 1\nvalue = 1977.2"] ;
102 -> 104 ;
105 [label="H_degree <= 80.027\nsquared_error = 27.347\nsamples = 5\nvalue = 1947.444"] ;
101 -> 105 ;
106 [label="squared_error = 26.301\nsamples = 3\nvalue = 1949.833"] ;
105 -> 106 ;
107 [label="squared_error = 7.508\nsamples = 2\nvalue = 1943.86"] ;
105 -> 107 ;
108 [label="squared_error = 0.0\nsamples = 1\nvalue = 1972.08"] ;
100 -> 108 ;
109 [label="H_degree <= 123.525\nsquared_error = 130.936\nsamples = 101\nvalue = 1940.846"] ;
87 -> 109 ;
110 [label="H_degree <= 115.354\nsquared_error = 107.153\nsamples = 63\nvalue = 1938.912"] ;
109 -> 110 ;
111 [label="H_degree <= 92.764\nsquared_error = 111.332\nsamples = 52\nvalue = 1940.271"] ;
110 -> 111 ;
112 [label="H_degree <= 86.035\nsquared_error = 46.158\nsamples = 14\nvalue = 1935.371"] ;
111 -> 112 ;
113 [label="squared_error = 11.186\nsamples = 5\nvalue = 1941.218"] ;
112 -> 113 ;
114 [label="squared_error = 36.04\nsamples = 9\nvalue = 1932.122"] ;
112 -> 114 ;
115 [label="H_degree <= 95.167\nsquared_error = 123.238\nsamples = 38\nvalue = 1942.076"] ;
111 -> 115 ;
116 [label="squared_error = 37.084\nsamples = 4\nvalue = 1955.245"] ;
115 -> 116 ;
117 [label="squared_error = 110.571\nsamples = 34\nvalue = 1940.527"] ;
115 -> 117 ;
118 [label="H_degree <= 122.083\nsquared_error = 37.441\nsamples = 11\nvalue = 1932.491"] ;
110 -> 118 ;
119 [label="H_degree <= 117.757\nsquared_error = 13.318\nsamples = 8\nvalue = 1929.376"] ;
118 -> 119 ;
120 [label="squared_error = 0.703\nsamples = 3\nvalue = 1933.343"] ;
119 -> 120 ;
121 [label="squared_error = 5.779\nsamples = 5\nvalue = 1926.996"] ;
119 -> 121 ;
122 [label="H_degree <= 122.563\nsquared_error = 6.916\nsamples = 3\nvalue = 1940.797"] ;
118 -> 122 ;
123 [label="squared_error = 0.0\nsamples = 1\nvalue = 1944.06"] ;
122 -> 123 ;
124 [label="squared_error = 2.387\nsamples = 2\nvalue = 1939.165"] ;
122 -> 124 ;
125 [label="H_degree <= 129.292\nsquared_error = 153.89\nsamples = 38\nvalue = 1944.052"] ;
109 -> 125 ;
126 [label="H_degree <= 126.889\nsquared_error = 84.521\nsamples = 11\nvalue = 1948.681"] ;
125 -> 126 ;
127 [label="H_degree <= 124.005\nsquared_error = 55.478\nsamples = 7\nvalue = 1944.936"] ;
126 -> 127 ;
128 [label="squared_error = 0.0\nsamples = 1\nvalue = 1952.81"] ;
127 -> 128 ;
129 [label="squared_error = 52.668\nsamples = 6\nvalue = 1943.623"] ;
127 -> 129 ;
130 [label="H_degree <= 127.61\nsquared_error = 67.843\nsamples = 4\nvalue = 1955.235"] ;
126 -> 130 ;
131 [label="squared_error = 0.0\nsamples = 1\nvalue = 1968.04"] ;
130 -> 131 ;
132 [label="squared_error = 17.582\nsamples = 3\nvalue = 1950.967"] ;
130 -> 132 ;
133 [label="H_degree <= 134.82\nsquared_error = 169.865\nsamples = 27\nvalue = 1942.166"] ;
125 -> 133 ;
134 [label="H_degree <= 130.975\nsquared_error = 34.135\nsamples = 8\nvalue = 1935.769"] ;
133 -> 134 ;
135 [label="squared_error = 32.89\nsamples = 2\nvalue = 1940.105"] ;
134 -> 135 ;
136 [label="squared_error = 26.193\nsamples = 6\nvalue = 1934.323"] ;
134 -> 136 ;
137 [label="H_degree <= 136.983\nsquared_error = 202.529\nsamples = 19\nvalue = 1944.859"] ;
133 -> 137 ;
138 [label="squared_error = 65.044\nsamples = 2\nvalue = 1969.485"] ;
137 -> 138 ;
139 [label="squared_error = 138.967\nsamples = 17\nvalue = 1941.962"] ;
137 -> 139 ;
140 [label="H_degree <= 150.2\nsquared_error = 9835.456\nsamples = 54\nvalue = 1486.329"] ;
86 -> 140 ;
141 [label="H_degree <= 146.115\nsquared_error = 62.961\nsamples = 5\nvalue = 1695.626"] ;
140 -> 141 ;
142 [label="squared_error = 0.0\nsamples = 1\nvalue = 1703.95"] ;
141 -> 142 ;
143 [label="H_degree <= 148.278\nsquared_error = 57.049\nsamples = 4\nvalue = 1693.545"] ;
141 -> 143 ;
144 [label="H_degree <= 146.836\nsquared_error = 0.008\nsamples = 2\nvalue = 1688.37"] ;
143 -> 144 ;
145 [label="squared_error = 0.0\nsamples = 1\nvalue = 1688.46"] ;
144 -> 145 ;
146 [label="squared_error = 0.0\nsamples = 1\nvalue = 1688.28"] ;
144 -> 146 ;
147 [label="H_degree <= 149.479\nsquared_error = 60.528\nsamples = 2\nvalue = 1698.72"] ;
143 -> 147 ;
148 [label="squared_error = 0.0\nsamples = 1\nvalue = 1706.5"] ;
147 -> 148 ;
149 [label="squared_error = -0.0\nsamples = 1\nvalue = 1690.94"] ;
147 -> 149 ;
150 [label="H_degree <= 178.558\nsquared_error = 5906.59\nsamples = 49\nvalue = 1464.972"] ;
140 -> 150 ;
151 [label="H_degree <= 177.837\nsquared_error = 856.672\nsamples = 47\nvalue = 1451.333"] ;
150 -> 151 ;
152 [label="H_degree <= 159.092\nsquared_error = 771.67\nsamples = 46\nvalue = 1452.818"] ;
151 -> 152 ;
153 [label="H_degree <= 150.921\nsquared_error = 323.479\nsamples = 13\nvalue = 1466.732"] ;
152 -> 153 ;
154 [label="squared_error = 0.0\nsamples = 1\nvalue = 1443.25"] ;
153 -> 154 ;
155 [label="squared_error = 300.658\nsamples = 12\nvalue = 1468.688"] ;
153 -> 155 ;
156 [label="H_degree <= 161.255\nsquared_error = 841.928\nsamples = 33\nvalue = 1447.337"] ;
152 -> 156 ;
157 [label="squared_error = 106.408\nsamples = 4\nvalue = 1396.405"] ;
156 -> 157 ;
158 [label="squared_error = 536.224\nsamples = 29\nvalue = 1454.362"] ;
156 -> 158 ;
159 [label="squared_error = 0.0\nsamples = 1\nvalue = 1383.03"] ;
151 -> 159 ;
160 [label="H_degree <= 179.519\nsquared_error = 17486.095\nsamples = 2\nvalue = 1785.475"] ;
150 -> 160 ;
161 [label="squared_error = 0.0\nsamples = 1\nvalue = 1653.24"] ;
160 -> 161 ;
162 [label="squared_error = 0.0\nsamples = 1\nvalue = 1917.71"] ;
160 -> 162 ;
}