digraph Tree {
node [shape=box, fontname="helvetica"] ;
edge [fontname="helvetica"] ;
0 [label="H_degree <= 49.612\nsquared_error = 62209.005\nsamples = 578\nvalue = 3485.231"] ;
1 [label="H_degree <= -15.706\nsquared_error = 54486.479\nsamples = 367\nvalue = 3395.746"] ;
0 -> 1 [labeldistance=2.5, labelangle=45, headlabel="True"] ;
2 [label="H_degree <= -156.316\nsquared_error = 42956.491\nsamples = 264\nvalue = 3487.09"] ;
1 -> 2 ;
3 [label="H_degree <= -171.025\nsquared_error = 1932.292\nsamples = 39\nvalue = 3757.121"] ;
2 -> 3 ;
4 [label="H_degree <= -177.756\nsquared_error = 1706.623\nsamples = 15\nvalue = 3723.155"] ;
3 -> 4 ;
5 [label="H_degree <= -179.501\nsquared_error = 643.828\nsamples = 4\nvalue = 3739.888"] ;
4 -> 5 ;
6 [label="squared_error = 0.0\nsamples = 1\nvalue = 3707.87"] ;
5 -> 6 ;
7 [label="H_degree <= -178.753\nsquared_error = 402.828\nsamples = 3\nvalue = 3750.56"] ;
5 -> 7 ;
8 [label="squared_error = 0.0\nsamples = 1\nvalue = 3778.87"] ;
7 -> 8 ;
9 [label="squared_error = 3.151\nsamples = 2\nvalue = 3736.405"] ;
7 -> 9 ;
10 [label="H_degree <= -177.258\nsquared_error = 1954.268\nsamples = 11\nvalue = 3717.071"] ;
4 -> 10 ;
11 [label="squared_error = 0.0\nsamples = 1\nvalue = 3657.2"] ;
10 -> 11 ;
12 [label="H_degree <= -176.759\nsquared_error = 1755.397\nsamples = 10\nvalue = 3723.058"] ;
10 -> 12 ;
13 [label="squared_error = 0.0\nsamples = 1\nvalue = 3783.75"] ;
12 -> 13 ;
14 [label="squared_error = 1495.685\nsamples = 9\nvalue = 3716.314"] ;
12 -> 14 ;
15 [label="H_degree <= -170.028\nsquared_error = 901.676\nsamples = 24\nvalue = 3778.349"] ;
3 -> 15 ;
16 [label="squared_error = 0.0\nsamples = 1\nvalue = 3878.66"] ;
15 -> 16 ;
17 [label="H_degree <= -167.285\nsquared_error = 484.365\nsamples = 23\nvalue = 3773.987"] ;
15 -> 17 ;
18 [label="H_degree <= -169.03\nsquared_error = 33.552\nsamples = 4\nvalue = 3795.408"] ;
17 -> 18 ;
19 [label="squared_error = 0.0\nsamples = 1\nvalue = 3788.1"] ;
18 -> 19 ;
20 [label="squared_error = 21.002\nsamples = 3\nvalue = 3797.843"] ;
18 -> 20 ;
21 [label="H_degree <= -163.296\nsquared_error = 462.344\nsamples = 19\nvalue = 3769.478"] ;
17 -> 21 ;
22 [label="squared_error = 126.12\nsamples = 6\nvalue = 3753.337"] ;
21 -> 22 ;
23 [label="squared_error = 441.775\nsamples = 13\nvalue = 3776.928"] ;
21 -> 23 ;
24 [label="H_degree <= -59.086\nsquared_error = 35237.766\nsamples = 225\nvalue = 3440.285"] ;
2 -> 24 ;
25 [label="H_degree <= -105.457\nsquared_error = 6014.563\nsamples = 157\nvalue = 3338.122"] ;
24 -> 25 ;
26 [label="H_degree <= -153.324\nsquared_error = 446.31\nsamples = 85\nvalue = 3278.892"] ;
25 -> 26 ;
27 [label="H_degree <= -153.823\nsquared_error = 222.915\nsamples = 6\nvalue = 3315.697"] ;
26 -> 27 ;
28 [label="squared_error = 90.284\nsamples = 5\nvalue = 3310.262"] ;
27 -> 28 ;
29 [label="squared_error = 0.0\nsamples = 1\nvalue = 3342.87"] ;
27 -> 29 ;
30 [label="H_degree <= -142.853\nsquared_error = 352.582\nsamples = 79\nvalue = 3276.097"] ;
26 -> 30 ;
31 [label="squared_error = 138.877\nsamples = 17\nvalue = 3250.449"] ;
30 -> 31 ;
32 [label="squared_error = 181.367\nsamples = 62\nvalue = 3283.129"] ;
30 -> 32 ;
33 [label="H_degree <= -86.51\nsquared_error = 3557.143\nsamples = 72\nvalue = 3408.046"] ;
25 -> 33 ;
34 [label="H_degree <= -104.958\nsquared_error = 71.805\nsamples = 29\nvalue = 3357.07"] ;
33 -> 34 ;
35 [label="squared_error = 0.0\nsamples = 1\nvalue = 3344.27"] ;
34 -> 35 ;
36 [label="squared_error = 68.309\nsamples = 28\nvalue = 3357.527"] ;
34 -> 36 ;
37 [label="H_degree <= -66.066\nsquared_error = 2973.276\nsamples = 43\nvalue = 3442.426"] ;
33 -> 37 ;
38 [label="squared_error = 2065.781\nsamples = 31\nvalue = 3462.271"] ;
37 -> 38 ;
39 [label="squared_error = 1671.889\nsamples = 12\nvalue = 3391.158"] ;
37 -> 39 ;
40 [label="H_degree <= -24.183\nsquared_error = 22973.842\nsamples = 68\nvalue = 3676.161"] ;
24 -> 40 ;
41 [label="H_degree <= -55.596\nsquared_error = 5271.464\nsamples = 54\nvalue = 3743.399"] ;
40 -> 41 ;
42 [label="H_degree <= -57.091\nsquared_error = 402.062\nsamples = 5\nvalue = 3537.846"] ;
41 -> 42 ;
43 [label="squared_error = 117.004\nsamples = 4\nvalue = 3546.628"] ;
42 -> 43 ;
44 [label="squared_error = 0.0\nsamples = 1\nvalue = 3502.72"] ;
42 -> 44 ;
45 [label="H_degree <= -24.931\nsquared_error = 1016.973\nsamples = 49\nvalue = 3764.374"] ;
41 -> 45 ;
46 [label="squared_error = 477.441\nsamples = 48\nvalue = 3767.756"] ;
45 -> 46 ;
47 [label="squared_error = 0.0\nsamples = 1\nvalue = 3602.0"] ;
45 -> 47 ;
48 [label="H_degree <= -21.191\nsquared_error = 6555.099\nsamples = 14\nvalue = 3416.813"] ;
40 -> 48 ;
49 [label="H_degree <= -23.435\nsquared_error = 241.159\nsamples = 5\nvalue = 3516.804"] ;
48 -> 49 ;
50 [label="squared_error = 0.0\nsamples = 1\nvalue = 3491.67"] ;
49 -> 50 ;
51 [label="squared_error = 104.037\nsamples = 4\nvalue = 3523.088"] ;
49 -> 51 ;
52 [label="H_degree <= -19.446\nsquared_error = 1422.399\nsamples = 9\nvalue = 3361.262"] ;
48 -> 52 ;
53 [label="squared_error = 5.679\nsamples = 3\nvalue = 3412.08"] ;
52 -> 53 ;
54 [label="squared_error = 193.923\nsamples = 6\nvalue = 3335.853"] ;
52 -> 54 ;
55 [label="H_degree <= 40.637\nsquared_error = 7838.16\nsamples = 103\nvalue = 3161.62"] ;
1 -> 55 ;
56 [label="H_degree <= -11.219\nsquared_error = 3776.49\nsamples = 91\nvalue = 3139.961"] ;
55 -> 56 ;
57 [label="H_degree <= -14.709\nsquared_error = 2104.23\nsamples = 7\nvalue = 3291.687"] ;
56 -> 57 ;
58 [label="H_degree <= -15.208\nsquared_error = 160.656\nsamples = 2\nvalue = 3257.805"] ;
57 -> 58 ;
59 [label="squared_error = 0.0\nsamples = 1\nvalue = 3245.13"] ;
58 -> 59 ;
60 [label="squared_error = -0.0\nsamples = 1\nvalue = 3270.48"] ;
58 -> 60 ;
61 [label="H_degree <= -13.961\nsquared_error = 2238.779\nsamples = 5\nvalue = 3305.24"] ;
57 -> 61 ;
62 [label="squared_error = 0.0\nsamples = 1\nvalue = 3391.93"] ;
61 -> 62 ;
63 [label="H_degree <= -12.964\nsquared_error = 449.988\nsamples = 4\nvalue = 3283.568"] ;
61 -> 63 ;
64 [label="squared_error = 0.0\nsamples = 1\nvalue = 3251.33"] ;
63 -> 64 ;
65 [label="squared_error = 138.092\nsamples = 3\nvalue = 3294.313"] ;
63 -> 65 ;
66 [label="H_degree <= 1.247\nsquared_error = 1837.585\nsamples = 84\nvalue = 3127.317"] ;
56 -> 66 ;
67 [label="H_degree <= -5.734\nsquared_error = 579.438\nsamples = 24\nvalue = 3165.964"] ;
66 -> 67 ;
68 [label="H_degree <= -8.227\nsquared_error = 238.921\nsamples = 10\nvalue = 3182.326"] ;
67 -> 68 ;
69 [label="squared_error = 222.933\nsamples = 5\nvalue = 3189.822"] ;
68 -> 69 ;
70 [label="squared_error = 142.529\nsamples = 5\nvalue = 3174.83"] ;
68 -> 70 ;
71 [label="H_degree <= -0.748\nsquared_error = 494.839\nsamples = 14\nvalue = 3154.276"] ;
67 -> 71 ;
72 [label="squared_error = 520.202\nsamples = 10\nvalue = 3150.768"] ;
71 -> 72 ;
73 [label="squared_error = 323.728\nsamples = 4\nvalue = 3163.047"] ;
71 -> 73 ;
74 [label="H_degree <= 26.427\nsquared_error = 1504.465\nsamples = 60\nvalue = 3111.859"] ;
66 -> 74 ;
75 [label="H_degree <= 9.224\nsquared_error = 283.39\nsamples = 39\nvalue = 3088.219"] ;
74 -> 75 ;
76 [label="squared_error = 101.285\nsamples = 9\nvalue = 3069.257"] ;
75 -> 76 ;
77 [label="squared_error = 197.786\nsamples = 30\nvalue = 3093.908"] ;
75 -> 77 ;
78 [label="H_degree <= 35.152\nsquared_error = 806.91\nsamples = 21\nvalue = 3155.761"] ;
74 -> 78 ;
79 [label="squared_error = 287.286\nsamples = 13\nvalue = 3136.912"] ;
78 -> 79 ;
80 [label="squared_error = 135.768\nsamples = 8\nvalue = 3186.391"] ;
78 -> 80 ;
81 [label="H_degree <= 45.623\nsquared_error = 8105.683\nsamples = 12\nvalue = 3325.864"] ;
55 -> 81 ;
82 [label="H_degree <= 43.629\nsquared_error = 1653.889\nsamples = 9\nvalue = 3279.76"] ;
81 -> 82 ;
83 [label="H_degree <= 41.136\nsquared_error = 1751.513\nsamples = 6\nvalue = 3264.447"] ;
82 -> 83 ;
84 [label="squared_error = 0.0\nsamples = 1\nvalue = 3340.01"] ;
83 -> 84 ;
85 [label="H_degree <= 42.632\nsquared_error = 731.46\nsamples = 5\nvalue = 3249.334"] ;
83 -> 85 ;
86 [label="squared_error = 514.237\nsamples = 3\nvalue = 3233.337"] ;
85 -> 86 ;
87 [label="squared_error = 97.614\nsamples = 2\nvalue = 3273.33"] ;
85 -> 87 ;
88 [label="H_degree <= 44.127\nsquared_error = 51.652\nsamples = 3\nvalue = 3310.387"] ;
82 -> 88 ;
89 [label="squared_error = 0.0\nsamples = 1\nvalue = 3300.65"] ;
88 -> 89 ;
90 [label="H_degree <= 44.626\nsquared_error = 6.376\nsamples = 2\nvalue = 3315.255"] ;
88 -> 90 ;
91 [label="squared_error = 0.0\nsamples = 1\nvalue = 3317.78"] ;
90 -> 91 ;
92 [label="squared_error = -0.0\nsamples = 1\nvalue = 3312.73"] ;
90 -> 92 ;
93 [label="H_degree <= 48.116\nsquared_error = 1953.932\nsamples = 3\nvalue = 3464.177"] ;
81 -> 93 ;
94 [label="H_degree <= 46.62\nsquared_error = 1048.141\nsamples = 2\nvalue = 3439.125"] ;
93 -> 94 ;
95 [label="squared_error = 0.0\nsamples = 1\nvalue = 3471.5"] ;
94 -> 95 ;
96 [label="squared_error = 0.0\nsamples = 1\nvalue = 3406.75"] ;
94 -> 96 ;
97 [label="squared_error = 0.0\nsamples = 1\nvalue = 3514.28"] ;
93 -> 97 ;
98 [label="H_degree <= 148.338\nsquared_error = 37487.732\nsamples = 211\nvalue = 3640.876"] ;
0 -> 98 [labeldistance=2.5, labelangle=-45, headlabel="False"] ;
99 [label="H_degree <= 52.105\nsquared_error = 3883.72\nsamples = 159\nvalue = 3743.323"] ;
98 -> 99 ;
100 [label="H_degree <= 50.36\nsquared_error = 316.213\nsamples = 4\nvalue = 3539.785"] ;
99 -> 100 ;
101 [label="squared_error = 0.0\nsamples = 1\nvalue = 3569.57"] ;
100 -> 101 ;
102 [label="H_degree <= 51.607\nsquared_error = 27.33\nsamples = 3\nvalue = 3529.857"] ;
100 -> 102 ;
103 [label="H_degree <= 51.108\nsquared_error = 23.232\nsamples = 2\nvalue = 3532.29"] ;
102 -> 103 ;
104 [label="squared_error = 0.0\nsamples = 1\nvalue = 3527.47"] ;
103 -> 104 ;
105 [label="squared_error = 0.0\nsamples = 1\nvalue = 3537.11"] ;
103 -> 105 ;
106 [label="squared_error = -0.0\nsamples = 1\nvalue = 3524.99"] ;
102 -> 106 ;
107 [label="H_degree <= 97.23\nsquared_error = 2879.089\nsamples = 155\nvalue = 3748.576"] ;
99 -> 107 ;
108 [label="H_degree <= 62.078\nsquared_error = 2243.291\nsamples = 75\nvalue = 3774.778"] ;
107 -> 108 ;
109 [label="H_degree <= 60.582\nsquared_error = 913.485\nsamples = 17\nvalue = 3800.402"] ;
108 -> 109 ;
110 [label="H_degree <= 57.091\nsquared_error = 278.449\nsamples = 14\nvalue = 3792.731"] ;
109 -> 110 ;
111 [label="squared_error = 138.953\nsamples = 9\nvalue = 3788.183"] ;
110 -> 111 ;
112 [label="squared_error = 425.322\nsamples = 5\nvalue = 3800.916"] ;
110 -> 112 ;
113 [label="H_degree <= 61.08\nsquared_error = 2320.622\nsamples = 3\nvalue = 3836.203"] ;
109 -> 113 ;
114 [label="squared_error = 0.0\nsamples = 1\nvalue = 3904.31"] ;
113 -> 114 ;
115 [label="squared_error = 2.045\nsamples = 2\nvalue = 3802.15"] ;
113 -> 115 ;
116 [label="H_degree <= 84.017\nsquared_error = 2384.202\nsamples = 58\nvalue = 3767.268"] ;
108 -> 116 ;
117 [label="H_degree <= 71.053\nsquared_error = 339.35\nsamples = 35\nvalue = 3751.611"] ;
116 -> 117 ;
118 [label="squared_error = 319.616\nsamples = 14\nvalue = 3761.65"] ;
117 -> 118 ;
119 [label="squared_error = 240.537\nsamples = 21\nvalue = 3744.919"] ;
117 -> 119 ;
120 [label="H_degree <= 85.014\nsquared_error = 4555.319\nsamples = 23\nvalue = 3791.092"] ;
116 -> 120 ;
121 [label="squared_error = 90.25\nsamples = 2\nvalue = 3882.75"] ;
120 -> 121 ;
122 [label="squared_error = 4104.253\nsamples = 21\nvalue = 3782.363"] ;
120 -> 122 ;
123 [label="H_degree <= 105.457\nsquared_error = 2228.092\nsamples = 80\nvalue = 3724.012"] ;
107 -> 123 ;
124 [label="H_degree <= 99.474\nsquared_error = 200.542\nsamples = 12\nvalue = 3740.218"] ;
123 -> 124 ;
125 [label="H_degree <= 98.975\nsquared_error = 143.132\nsamples = 4\nvalue = 3728.118"] ;
124 -> 125 ;
126 [label="squared_error = 92.602\nsamples = 3\nvalue = 3733.073"] ;
125 -> 126 ;
127 [label="squared_error = 0.0\nsamples = 1\nvalue = 3713.25"] ;
125 -> 127 ;
128 [label="H_degree <= 103.463\nsquared_error = 119.439\nsamples = 8\nvalue = 3746.268"] ;
124 -> 128 ;
129 [label="squared_error = 70.973\nsamples = 6\nvalue = 3743.67"] ;
128 -> 129 ;
130 [label="squared_error = 183.874\nsamples = 2\nvalue = 3754.06"] ;
128 -> 130 ;
131 [label="H_degree <= 123.906\nsquared_error = 2531.369\nsamples = 68\nvalue = 3721.152"] ;
123 -> 131 ;
132 [label="H_degree <= 120.665\nsquared_error = 4077.62\nsamples = 30\nvalue = 3713.947"] ;
131 -> 132 ;
133 [label="squared_error = 1006.515\nsamples = 24\nvalue = 3726.973"] ;
132 -> 133 ;
134 [label="squared_error = 12968.506\nsamples = 6\nvalue = 3661.843"] ;
132 -> 134 ;
135 [label="H_degree <= 125.9\nsquared_error = 1237.32\nsamples = 38\nvalue = 3726.839"] ;
131 -> 135 ;
136 [label="squared_error = 4716.62\nsamples = 4\nvalue = 3795.715"] ;
135 -> 136 ;
137 [label="squared_error = 204.229\nsamples = 34\nvalue = 3718.736"] ;
135 -> 137 ;
138 [label="H_degree <= 168.781\nsquared_error = 10019.271\nsamples = 52\nvalue = 3327.623"] ;
98 -> 138 ;
139 [label="H_degree <= 155.817\nsquared_error = 2728.251\nsamples = 32\nvalue = 3393.406"] ;
138 -> 139 ;
140 [label="H_degree <= 150.582\nsquared_error = 216.846\nsamples = 10\nvalue = 3468.971"] ;
139 -> 140 ;
141 [label="H_degree <= 148.837\nsquared_error = 83.876\nsamples = 4\nvalue = 3458.2"] ;
140 -> 141 ;
142 [label="squared_error = 0.0\nsamples = 1\nvalue = 3445.01"] ;
141 -> 142 ;
143 [label="H_degree <= 149.834\nsquared_error = 34.512\nsamples = 3\nvalue = 3462.597"] ;
141 -> 143 ;
144 [label="squared_error = 13.032\nsamples = 2\nvalue = 3466.19"] ;
143 -> 144 ;
145 [label="squared_error = 0.0\nsamples = 1\nvalue = 3455.41"] ;
143 -> 145 ;
146 [label="H_degree <= 153.823\nsquared_error = 176.588\nsamples = 6\nvalue = 3476.152"] ;
140 -> 146 ;
147 [label="H_degree <= 152.576\nsquared_error = 34.549\nsamples = 3\nvalue = 3487.083"] ;
146 -> 147 ;
148 [label="squared_error = 8.123\nsamples = 2\nvalue = 3490.9"] ;
147 -> 148 ;
149 [label="squared_error = 0.0\nsamples = 1\nvalue = 3479.45"] ;
147 -> 149 ;
150 [label="H_degree <= 155.319\nsquared_error = 79.625\nsamples = 3\nvalue = 3465.22"] ;
146 -> 150 ;
151 [label="squared_error = 2.25\nsamples = 2\nvalue = 3471.47"] ;
150 -> 151 ;
152 [label="squared_error = 0.0\nsamples = 1\nvalue = 3452.72"] ;
150 -> 152 ;
153 [label="H_degree <= 157.812\nsquared_error = 94.54\nsamples = 22\nvalue = 3359.058"] ;
139 -> 153 ;
154 [label="H_degree <= 156.814\nsquared_error = 29.866\nsamples = 2\nvalue = 3368.345"] ;
153 -> 154 ;
155 [label="squared_error = 0.0\nsamples = 1\nvalue = 3362.88"] ;
154 -> 155 ;
156 [label="squared_error = -0.0\nsamples = 1\nvalue = 3373.81"] ;
154 -> 156 ;
157 [label="H_degree <= 166.288\nsquared_error = 91.52\nsamples = 20\nvalue = 3358.13"] ;
153 -> 157 ;
158 [label="H_degree <= 163.296\nsquared_error = 91.728\nsamples = 15\nvalue = 3356.414"] ;
157 -> 158 ;
159 [label="squared_error = 133.007\nsamples = 9\nvalue = 3358.59"] ;
158 -> 159 ;
160 [label="squared_error = 12.054\nsamples = 6\nvalue = 3353.15"] ;
158 -> 160 ;
161 [label="H_degree <= 167.285\nsquared_error = 55.582\nsamples = 5\nvalue = 3363.276"] ;
157 -> 161 ;
162 [label="squared_error = 6.76\nsamples = 2\nvalue = 3370.92"] ;
161 -> 162 ;
163 [label="squared_error = 23.207\nsamples = 3\nvalue = 3358.18"] ;
161 -> 163 ;
164 [label="H_degree <= 173.767\nsquared_error = 3683.088\nsamples = 20\nvalue = 3222.371"] ;
138 -> 164 ;
165 [label="H_degree <= 173.269\nsquared_error = 106.214\nsamples = 9\nvalue = 3276.077"] ;
164 -> 165 ;
166 [label="H_degree <= 172.271\nsquared_error = 92.503\nsamples = 8\nvalue = 3274.345"] ;
165 -> 166 ;
167 [label="H_degree <= 169.778\nsquared_error = 90.65\nsamples = 6\nvalue = 3277.182"] ;
166 -> 167 ;
168 [label="squared_error = 1.452\nsamples = 2\nvalue = 3268.145"] ;
167 -> 168 ;
169 [label="squared_error = 74.003\nsamples = 4\nvalue = 3281.7"] ;
167 -> 169 ;
170 [label="H_degree <= 172.77\nsquared_error = 1.501\nsamples = 2\nvalue = 3265.835"] ;
166 -> 170 ;
171 [label="squared_error = 0.0\nsamples = 1\nvalue = 3267.06"] ;
170 -> 171 ;
172 [label="squared_error = 0.0\nsamples = 1\nvalue = 3264.61"] ;
170 -> 172 ;
173 [label="squared_error = -0.0\nsamples = 1\nvalue = 3289.93"] ;
165 -> 173 ;
174 [label="H_degree <= 179.501\nsquared_error = 2318.928\nsamples = 11\nvalue = 3178.43"] ;
164 -> 174 ;
175 [label="H_degree <= 176.759\nsquared_error = 1508.349\nsamples = 10\nvalue = 3188.165"] ;
174 -> 175 ;
176 [label="H_degree <= 174.765\nsquared_error = 1773.602\nsamples = 6\nvalue = 3171.363"] ;
175 -> 176 ;
177 [label="squared_error = 2.22\nsamples = 2\nvalue = 3219.67"] ;
176 -> 177 ;
178 [label="squared_error = 909.142\nsamples = 4\nvalue = 3147.21"] ;
176 -> 178 ;
179 [label="H_degree <= 178.504\nsquared_error = 51.859\nsamples = 4\nvalue = 3213.368"] ;
175 -> 179 ;
180 [label="squared_error = 52.864\nsamples = 3\nvalue = 3211.35"] ;
179 -> 180 ;
181 [label="squared_error = 0.0\nsamples = 1\nvalue = 3219.42"] ;
179 -> 181 ;
182 [label="squared_error = 0.0\nsamples = 1\nvalue = 3081.08"] ;
174 -> 182 ;
}