digraph Tree {
node [shape=box, fontname="helvetica"] ;
edge [fontname="helvetica"] ;
0 [label="H_degree <= 45.0\nsquared_error = 74681.835\nsamples = 287\nvalue = 3510.546"] ;
1 [label="H_degree <= 33.939\nsquared_error = 5386.034\nsamples = 70\nvalue = 3134.176"] ;
0 -> 1 [labeldistance=2.5, labelangle=45, headlabel="True"] ;
2 [label="H_degree <= 25.391\nsquared_error = 712.88\nsamples = 53\nvalue = 3098.164"] ;
1 -> 2 ;
3 [label="H_degree <= 7.793\nsquared_error = 313.846\nsamples = 40\nvalue = 3086.803"] ;
2 -> 3 ;
4 [label="H_degree <= 2.263\nsquared_error = 112.78\nsamples = 12\nvalue = 3070.809"] ;
3 -> 4 ;
5 [label="H_degree <= 0.251\nsquared_error = 44.141\nsamples = 4\nvalue = 3061.902"] ;
4 -> 5 ;
6 [label="squared_error = 0.0\nsamples = 1\nvalue = 3052.02"] ;
5 -> 6 ;
7 [label="H_degree <= 1.508\nsquared_error = 15.449\nsamples = 3\nvalue = 3065.197"] ;
5 -> 7 ;
8 [label="squared_error = 16.484\nsamples = 2\nvalue = 3066.69"] ;
7 -> 8 ;
9 [label="squared_error = 0.0\nsamples = 1\nvalue = 3062.21"] ;
7 -> 9 ;
10 [label="H_degree <= 3.52\nsquared_error = 87.603\nsamples = 8\nvalue = 3075.263"] ;
4 -> 10 ;
11 [label="H_degree <= 2.765\nsquared_error = 10.368\nsamples = 2\nvalue = 3088.24"] ;
10 -> 11 ;
12 [label="squared_error = 0.0\nsamples = 1\nvalue = 3085.02"] ;
11 -> 12 ;
13 [label="squared_error = 0.0\nsamples = 1\nvalue = 3091.46"] ;
11 -> 13 ;
14 [label="H_degree <= 6.285\nsquared_error = 38.497\nsamples = 6\nvalue = 3070.937"] ;
10 -> 14 ;
15 [label="squared_error = 4.156\nsamples = 4\nvalue = 3074.487"] ;
14 -> 15 ;
16 [label="squared_error = 31.528\nsamples = 2\nvalue = 3063.835"] ;
14 -> 16 ;
17 [label="H_degree <= 11.313\nsquared_error = 243.394\nsamples = 28\nvalue = 3093.658"] ;
3 -> 17 ;
18 [label="H_degree <= 8.547\nsquared_error = 95.764\nsamples = 5\nvalue = 3104.81"] ;
17 -> 18 ;
19 [label="squared_error = 0.0\nsamples = 1\nvalue = 3090.27"] ;
18 -> 19 ;
20 [label="H_degree <= 9.302\nsquared_error = 53.639\nsamples = 4\nvalue = 3108.445"] ;
18 -> 20 ;
21 [label="squared_error = 0.0\nsamples = 1\nvalue = 3119.18"] ;
20 -> 21 ;
22 [label="squared_error = 20.301\nsamples = 3\nvalue = 3104.867"] ;
20 -> 22 ;
23 [label="H_degree <= 14.832\nsquared_error = 242.575\nsamples = 23\nvalue = 3091.234"] ;
17 -> 23 ;
24 [label="H_degree <= 13.324\nsquared_error = 113.296\nsamples = 4\nvalue = 3078.417"] ;
23 -> 24 ;
25 [label="squared_error = 23.863\nsamples = 2\nvalue = 3087.995"] ;
24 -> 25 ;
26 [label="squared_error = 19.272\nsamples = 2\nvalue = 3068.84"] ;
24 -> 26 ;
27 [label="H_degree <= 16.341\nsquared_error = 227.93\nsamples = 19\nvalue = 3093.932"] ;
23 -> 27 ;
28 [label="squared_error = 391.842\nsamples = 2\nvalue = 3115.195"] ;
27 -> 28 ;
29 [label="squared_error = 149.199\nsamples = 17\nvalue = 3091.431"] ;
27 -> 29 ;
30 [label="H_degree <= 27.654\nsquared_error = 321.804\nsamples = 13\nvalue = 3133.118"] ;
2 -> 30 ;
31 [label="H_degree <= 26.899\nsquared_error = 148.315\nsamples = 4\nvalue = 3124.053"] ;
30 -> 31 ;
32 [label="H_degree <= 26.397\nsquared_error = 150.67\nsamples = 3\nvalue = 3127.483"] ;
31 -> 32 ;
33 [label="H_degree <= 25.894\nsquared_error = 23.136\nsamples = 2\nvalue = 3119.26"] ;
32 -> 33 ;
34 [label="squared_error = 0.0\nsamples = 1\nvalue = 3124.07"] ;
33 -> 34 ;
35 [label="squared_error = -0.0\nsamples = 1\nvalue = 3114.45"] ;
33 -> 35 ;
36 [label="squared_error = -0.0\nsamples = 1\nvalue = 3143.93"] ;
32 -> 36 ;
37 [label="squared_error = -0.0\nsamples = 1\nvalue = 3113.76"] ;
31 -> 37 ;
38 [label="H_degree <= 29.916\nsquared_error = 346.155\nsamples = 9\nvalue = 3137.147"] ;
30 -> 38 ;
39 [label="H_degree <= 28.408\nsquared_error = 136.218\nsamples = 4\nvalue = 3148.395"] ;
38 -> 39 ;
40 [label="squared_error = 0.0\nsamples = 1\nvalue = 3138.72"] ;
39 -> 40 ;
41 [label="H_degree <= 28.911\nsquared_error = 140.021\nsamples = 3\nvalue = 3151.62"] ;
39 -> 41 ;
42 [label="squared_error = 0.0\nsamples = 1\nvalue = 3165.57"] ;
41 -> 42 ;
43 [label="squared_error = 64.08\nsamples = 2\nvalue = 3144.645"] ;
41 -> 43 ;
44 [label="H_degree <= 30.419\nsquared_error = 331.908\nsamples = 5\nvalue = 3128.148"] ;
38 -> 44 ;
45 [label="squared_error = 0.0\nsamples = 1\nvalue = 3100.63"] ;
44 -> 45 ;
46 [label="H_degree <= 30.922\nsquared_error = 178.248\nsamples = 4\nvalue = 3135.028"] ;
44 -> 46 ;
47 [label="squared_error = 0.0\nsamples = 1\nvalue = 3122.19"] ;
46 -> 47 ;
48 [label="squared_error = 164.418\nsamples = 3\nvalue = 3139.307"] ;
46 -> 48 ;
49 [label="H_degree <= 39.469\nsquared_error = 3306.836\nsamples = 17\nvalue = 3246.449"] ;
1 -> 49 ;
50 [label="H_degree <= 36.955\nsquared_error = 132.182\nsamples = 7\nvalue = 3189.654"] ;
49 -> 50 ;
51 [label="H_degree <= 36.453\nsquared_error = 100.664\nsamples = 3\nvalue = 3180.587"] ;
50 -> 51 ;
52 [label="H_degree <= 35.95\nsquared_error = 50.481\nsamples = 2\nvalue = 3186.375"] ;
51 -> 52 ;
53 [label="squared_error = 0.0\nsamples = 1\nvalue = 3179.27"] ;
52 -> 53 ;
54 [label="squared_error = -0.0\nsamples = 1\nvalue = 3193.48"] ;
52 -> 54 ;
55 [label="squared_error = 0.0\nsamples = 1\nvalue = 3169.01"] ;
51 -> 55 ;
56 [label="H_degree <= 38.715\nsquared_error = 47.904\nsamples = 4\nvalue = 3196.455"] ;
50 -> 56 ;
57 [label="H_degree <= 37.458\nsquared_error = 19.294\nsamples = 3\nvalue = 3193.117"] ;
56 -> 57 ;
58 [label="squared_error = 0.0\nsamples = 1\nvalue = 3199.06"] ;
57 -> 58 ;
59 [label="H_degree <= 37.961\nsquared_error = 2.449\nsamples = 2\nvalue = 3190.145"] ;
57 -> 59 ;
60 [label="squared_error = 0.0\nsamples = 1\nvalue = 3188.58"] ;
59 -> 60 ;
61 [label="squared_error = 0.0\nsamples = 1\nvalue = 3191.71"] ;
59 -> 61 ;
62 [label="squared_error = 0.0\nsamples = 1\nvalue = 3206.47"] ;
56 -> 62 ;
63 [label="H_degree <= 42.235\nsquared_error = 1690.607\nsamples = 10\nvalue = 3286.205"] ;
49 -> 63 ;
64 [label="H_degree <= 39.972\nsquared_error = 2017.321\nsamples = 5\nvalue = 3260.694"] ;
63 -> 64 ;
65 [label="squared_error = 0.0\nsamples = 1\nvalue = 3340.01"] ;
64 -> 65 ;
66 [label="H_degree <= 41.48\nsquared_error = 555.705\nsamples = 4\nvalue = 3240.865"] ;
64 -> 66 ;
67 [label="H_degree <= 40.978\nsquared_error = 514.237\nsamples = 3\nvalue = 3233.337"] ;
66 -> 67 ;
68 [label="squared_error = 176.757\nsamples = 2\nvalue = 3247.415"] ;
67 -> 68 ;
69 [label="squared_error = 0.0\nsamples = 1\nvalue = 3205.18"] ;
67 -> 69 ;
70 [label="squared_error = -0.0\nsamples = 1\nvalue = 3263.45"] ;
66 -> 70 ;
71 [label="H_degree <= 42.989\nsquared_error = 62.27\nsamples = 5\nvalue = 3311.716"] ;
63 -> 71 ;
72 [label="squared_error = 0.0\nsamples = 1\nvalue = 3300.65"] ;
71 -> 72 ;
73 [label="H_degree <= 44.497\nsquared_error = 39.57\nsamples = 4\nvalue = 3314.482"] ;
71 -> 73 ;
74 [label="H_degree <= 43.994\nsquared_error = 26.495\nsamples = 3\nvalue = 3311.92"] ;
73 -> 74 ;
75 [label="squared_error = 6.376\nsamples = 2\nvalue = 3315.255"] ;
74 -> 75 ;
76 [label="squared_error = 0.0\nsamples = 1\nvalue = 3305.25"] ;
74 -> 76 ;
77 [label="squared_error = 0.0\nsamples = 1\nvalue = 3322.17"] ;
73 -> 77 ;
78 [label="H_degree <= 148.073\nsquared_error = 36600.083\nsamples = 217\nvalue = 3631.955"] ;
0 -> 78 [labeldistance=2.5, labelangle=-45, headlabel="False"] ;
79 [label="H_degree <= 51.034\nsquared_error = 6001.729\nsamples = 160\nvalue = 3734.714"] ;
78 -> 79 ;
80 [label="H_degree <= 47.263\nsquared_error = 2837.893\nsamples = 9\nvalue = 3487.283"] ;
79 -> 80 ;
81 [label="H_degree <= 45.503\nsquared_error = 643.771\nsamples = 4\nvalue = 3433.382"] ;
80 -> 81 ;
82 [label="squared_error = 0.0\nsamples = 1\nvalue = 3471.5"] ;
81 -> 82 ;
83 [label="H_degree <= 46.006\nsquared_error = 212.609\nsamples = 3\nvalue = 3420.677"] ;
81 -> 83 ;
84 [label="squared_error = 0.0\nsamples = 1\nvalue = 3406.75"] ;
83 -> 84 ;
85 [label="H_degree <= 46.508\nsquared_error = 173.449\nsamples = 2\nvalue = 3427.64"] ;
83 -> 85 ;
86 [label="squared_error = 0.0\nsamples = 1\nvalue = 3440.81"] ;
85 -> 86 ;
87 [label="squared_error = -0.0\nsamples = 1\nvalue = 3414.47"] ;
85 -> 87 ;
88 [label="H_degree <= 48.52\nsquared_error = 409.558\nsamples = 5\nvalue = 3530.404"] ;
80 -> 88 ;
89 [label="H_degree <= 48.017\nsquared_error = 0.511\nsamples = 2\nvalue = 3514.995"] ;
88 -> 89 ;
90 [label="squared_error = 0.0\nsamples = 1\nvalue = 3515.71"] ;
89 -> 90 ;
91 [label="squared_error = 0.0\nsamples = 1\nvalue = 3514.28"] ;
89 -> 91 ;
92 [label="H_degree <= 49.274\nsquared_error = 418.437\nsamples = 3\nvalue = 3540.677"] ;
88 -> 92 ;
93 [label="squared_error = 0.0\nsamples = 1\nvalue = 3569.57"] ;
92 -> 93 ;
94 [label="H_degree <= 50.279\nsquared_error = 1.538\nsamples = 2\nvalue = 3526.23"] ;
92 -> 94 ;
95 [label="squared_error = 0.0\nsamples = 1\nvalue = 3527.47"] ;
94 -> 95 ;
96 [label="squared_error = 0.0\nsamples = 1\nvalue = 3524.99"] ;
94 -> 96 ;
97 [label="H_degree <= 96.536\nsquared_error = 2323.809\nsamples = 151\nvalue = 3749.462"] ;
79 -> 97 ;
98 [label="H_degree <= 61.089\nsquared_error = 2517.567\nsamples = 67\nvalue = 3778.267"] ;
97 -> 98 ;
99 [label="H_degree <= 58.575\nsquared_error = 1597.83\nsamples = 17\nvalue = 3804.889"] ;
98 -> 99 ;
100 [label="H_degree <= 57.318\nsquared_error = 320.92\nsamples = 13\nvalue = 3789.905"] ;
99 -> 100 ;
101 [label="squared_error = 288.211\nsamples = 11\nvalue = 3793.615"] ;
100 -> 101 ;
102 [label="squared_error = 8.97\nsamples = 2\nvalue = 3769.505"] ;
100 -> 102 ;
103 [label="H_degree <= 60.084\nsquared_error = 2646.834\nsamples = 4\nvalue = 3853.585"] ;
99 -> 103 ;
104 [label="squared_error = 0.504\nsamples = 2\nvalue = 3905.02"] ;
103 -> 104 ;
105 [label="squared_error = 2.045\nsamples = 2\nvalue = 3802.15"] ;
103 -> 105 ;
106 [label="H_degree <= 83.212\nsquared_error = 2507.373\nsamples = 50\nvalue = 3769.215"] ;
98 -> 106 ;
107 [label="H_degree <= 68.128\nsquared_error = 365.478\nsamples = 33\nvalue = 3752.438"] ;
106 -> 107 ;
108 [label="squared_error = 385.919\nsamples = 11\nvalue = 3762.162"] ;
107 -> 108 ;
109 [label="squared_error = 284.336\nsamples = 22\nvalue = 3747.575"] ;
107 -> 109 ;
110 [label="H_degree <= 87.486\nsquared_error = 5058.094\nsamples = 17\nvalue = 3801.783"] ;
106 -> 110 ;
111 [label="squared_error = 3032.118\nsamples = 7\nvalue = 3851.709"] ;
110 -> 111 ;
112 [label="squared_error = 3510.12\nsamples = 10\nvalue = 3766.835"] ;
110 -> 112 ;
113 [label="H_degree <= 126.453\nsquared_error = 979.623\nsamples = 84\nvalue = 3726.487"] ;
97 -> 113 ;
114 [label="H_degree <= 124.441\nsquared_error = 1416.949\nsamples = 49\nvalue = 3734.191"] ;
113 -> 114 ;
115 [label="H_degree <= 103.827\nsquared_error = 756.378\nsamples = 45\nvalue = 3728.48"] ;
114 -> 115 ;
116 [label="squared_error = 304.759\nsamples = 11\nvalue = 3745.394"] ;
115 -> 116 ;
117 [label="squared_error = 780.0\nsamples = 34\nvalue = 3723.009"] ;
115 -> 117 ;
118 [label="H_degree <= 125.447\nsquared_error = 4353.581\nsamples = 4\nvalue = 3798.44"] ;
114 -> 118 ;
119 [label="squared_error = 0.903\nsamples = 2\nvalue = 3864.36"] ;
118 -> 119 ;
120 [label="squared_error = 15.366\nsamples = 2\nvalue = 3732.52"] ;
118 -> 120 ;
121 [label="H_degree <= 145.056\nsquared_error = 167.917\nsamples = 35\nvalue = 3715.701"] ;
113 -> 121 ;
122 [label="H_degree <= 128.464\nsquared_error = 98.978\nsamples = 30\nvalue = 3712.343"] ;
121 -> 122 ;
123 [label="squared_error = 11.247\nsamples = 4\nvalue = 3700.385"] ;
122 -> 123 ;
124 [label="squared_error = 87.093\nsamples = 26\nvalue = 3714.182"] ;
122 -> 124 ;
125 [label="H_degree <= 146.061\nsquared_error = 107.977\nsamples = 5\nvalue = 3735.848"] ;
121 -> 125 ;
126 [label="squared_error = 45.091\nsamples = 2\nvalue = 3747.125"] ;
125 -> 126 ;
127 [label="squared_error = 8.601\nsamples = 3\nvalue = 3728.33"] ;
125 -> 127 ;
128 [label="H_degree <= 168.687\nsquared_error = 9648.063\nsamples = 57\nvalue = 3343.508"] ;
78 -> 128 ;
129 [label="H_degree <= 155.615\nsquared_error = 2978.703\nsamples = 39\nvalue = 3398.166"] ;
128 -> 129 ;
130 [label="H_degree <= 150.587\nsquared_error = 240.242\nsamples = 14\nvalue = 3469.036"] ;
129 -> 130 ;
131 [label="H_degree <= 148.575\nsquared_error = 75.349\nsamples = 5\nvalue = 3459.636"] ;
130 -> 131 ;
132 [label="squared_error = 0.0\nsamples = 1\nvalue = 3445.01"] ;
131 -> 132 ;
133 [label="H_degree <= 149.581\nsquared_error = 27.337\nsamples = 4\nvalue = 3463.292"] ;
131 -> 133 ;
134 [label="squared_error = 13.032\nsamples = 2\nvalue = 3466.19"] ;
133 -> 134 ;
135 [label="squared_error = 24.85\nsamples = 2\nvalue = 3460.395"] ;
133 -> 135 ;
136 [label="H_degree <= 152.095\nsquared_error = 255.493\nsamples = 9\nvalue = 3474.258"] ;
130 -> 136 ;
137 [label="H_degree <= 151.592\nsquared_error = 15.272\nsamples = 3\nvalue = 3493.12"] ;
136 -> 137 ;
138 [label="squared_error = 8.122\nsamples = 2\nvalue = 3490.9"] ;
137 -> 138 ;
139 [label="squared_error = 0.0\nsamples = 1\nvalue = 3497.56"] ;
137 -> 139 ;
140 [label="H_degree <= 153.101\nsquared_error = 108.766\nsamples = 6\nvalue = 3464.827"] ;
136 -> 140 ;
141 [label="squared_error = 37.271\nsamples = 2\nvalue = 3456.925"] ;
140 -> 141 ;
142 [label="squared_error = 97.686\nsamples = 4\nvalue = 3468.778"] ;
140 -> 142 ;
143 [label="H_degree <= 156.62\nsquared_error = 124.527\nsamples = 25\nvalue = 3358.478"] ;
129 -> 143 ;
144 [label="H_degree <= 156.117\nsquared_error = 153.017\nsamples = 2\nvalue = 3375.25"] ;
143 -> 144 ;
145 [label="squared_error = 0.0\nsamples = 1\nvalue = 3362.88"] ;
144 -> 145 ;
146 [label="squared_error = -0.0\nsamples = 1\nvalue = 3387.62"] ;
144 -> 146 ;
147 [label="H_degree <= 166.173\nsquared_error = 95.463\nsamples = 23\nvalue = 3357.02"] ;
143 -> 147 ;
148 [label="H_degree <= 157.374\nsquared_error = 92.649\nsamples = 18\nvalue = 3355.282"] ;
147 -> 148 ;
149 [label="squared_error = 0.0\nsamples = 1\nvalue = 3343.41"] ;
148 -> 149 ;
150 [label="squared_error = 89.321\nsamples = 17\nvalue = 3355.981"] ;
148 -> 150 ;
151 [label="H_degree <= 167.179\nsquared_error = 55.582\nsamples = 5\nvalue = 3363.276"] ;
147 -> 151 ;
152 [label="squared_error = 6.76\nsamples = 2\nvalue = 3370.92"] ;
151 -> 152 ;
153 [label="squared_error = 23.207\nsamples = 3\nvalue = 3358.18"] ;
151 -> 153 ;
154 [label="H_degree <= 173.966\nsquared_error = 3601.378\nsamples = 18\nvalue = 3225.084"] ;
128 -> 154 ;
155 [label="H_degree <= 171.201\nsquared_error = 142.556\nsamples = 8\nvalue = 3278.435"] ;
154 -> 155 ;
156 [label="H_degree <= 169.441\nsquared_error = 139.639\nsamples = 3\nvalue = 3285.647"] ;
155 -> 156 ;
157 [label="squared_error = 0.0\nsamples = 1\nvalue = 3269.35"] ;
156 -> 157 ;
158 [label="H_degree <= 170.447\nsquared_error = 10.272\nsamples = 2\nvalue = 3293.795"] ;
156 -> 158 ;
159 [label="squared_error = 0.0\nsamples = 1\nvalue = 3290.59"] ;
158 -> 159 ;
160 [label="squared_error = 0.0\nsamples = 1\nvalue = 3297.0"] ;
158 -> 160 ;
161 [label="H_degree <= 173.212\nsquared_error = 94.379\nsamples = 5\nvalue = 3274.108"] ;
155 -> 161 ;
162 [label="H_degree <= 172.207\nsquared_error = 39.743\nsamples = 4\nvalue = 3270.152"] ;
161 -> 162 ;
163 [label="squared_error = 40.704\nsamples = 2\nvalue = 3274.47"] ;
162 -> 163 ;
164 [label="squared_error = 1.501\nsamples = 2\nvalue = 3265.835"] ;
162 -> 164 ;
165 [label="squared_error = -0.0\nsamples = 1\nvalue = 3289.93"] ;
161 -> 165 ;
166 [label="H_degree <= 179.497\nsquared_error = 2269.79\nsamples = 10\nvalue = 3182.404"] ;
154 -> 166 ;
167 [label="H_degree <= 176.48\nsquared_error = 1254.513\nsamples = 9\nvalue = 3193.662"] ;
166 -> 167 ;
168 [label="H_degree <= 174.721\nsquared_error = 1720.486\nsamples = 4\nvalue = 3169.515"] ;
167 -> 168 ;
169 [label="squared_error = 0.0\nsamples = 1\nvalue = 3221.16"] ;
168 -> 169 ;
170 [label="squared_error = 1108.557\nsamples = 3\nvalue = 3152.3"] ;
168 -> 170 ;
171 [label="H_degree <= 178.743\nsquared_error = 42.088\nsamples = 5\nvalue = 3212.98"] ;
167 -> 171 ;
172 [label="squared_error = 39.649\nsamples = 4\nvalue = 3211.37"] ;
171 -> 172 ;
173 [label="squared_error = -0.0\nsamples = 1\nvalue = 3219.42"] ;
171 -> 173 ;
174 [label="squared_error = 0.0\nsamples = 1\nvalue = 3081.08"] ;
166 -> 174 ;
}